342 300
constitution 0.0443031303585 0.0546735115349 0.0106030125171 0.0119756804779 -0.139012604952 0.0327882245183 0.0101542407647 -0.0763843655586 0.0989278927445 0.0148691525683 -0.0580911822617 -0.107951909304 -0.1186510548 -0.0469002760947 -0.00897773355246 0.147241652012 -0.015815673396 -0.0336517766118 0.0113353412598 -0.0482782311738 -0.0286822337657 -0.0515093021095 0.0807676613331 0.178616628051 0.0344588495791 0.0344094708562 -0.028027318418 0.0877356603742 -0.0916800349951 -0.0691500008106 -0.0746145322919 0.111766383052 -0.0437275059521 -0.0149362022057 0.0245967749506 -0.000435220921645 -0.0235497374088 0.0443613901734 0.0547350123525 -0.0569839440286 -0.128622576594 0.008291461505 -0.0870839804411 -0.00706606032327 -0.0291135217994 -0.184654772282 0.0169766023755 0.0550936199725 0.0229380689561 -0.00518156029284 -0.064440831542 0.009466920048 -0.0774158909917 -0.102837748826 -0.0814377740026 0.00750941457227 0.033207885921 0.0307080019265 -0.15282098949 -0.0238176714629 -0.0251259673387 0.0945215672255 0.0829711258411 -0.0583919920027 0.0766576081514 -0.0202209763229 -0.0400173589587 -0.0335220918059 0.0472091026604 0.0414730869234 -0.0244053937495 -0.0213675517589 -0.0966681987047 0.00936984363943 -0.141512900591 0.017345611006 0.0585605911911 0.0229972302914 0.0303501226008 0.0154642397538 0.0940893888474 0.031884778291 0.00694972276688 -0.014923768118 -0.0157089326531 0.00984489638358 -0.118712030351 -0.0229408666492 0.0881161466241 0.0059513412416 -0.0199018009007 0.0260393600911 -0.0237294621766 0.0800488367677 -0.0148117300123 0.0414731130004 0.013556541875 0.0689978152514 -0.0154412928969 0.0753807500005 -0.031895570457 0.0962384939194 -0.0347100012004 0.0184410158545 0.0555307380855 -0.0791106000543 0.0192349571735 -0.00804149825126 -0.0718869194388 -0.114709056914 -0.124786943197 -0.0779546648264 0.0272647701204 -0.0587653405964 0.0345610566437 -0.0374688766897 -0.150742575526 0.0555603913963 0.0345149114728 0.0836760252714 -0.0273884795606 0.0693271160126 -0.0395812802017 0.0227808300406 -0.0288132485002 -0.0895163044333 0.0114693883806 0.0470396578312 0.058339625597 -0.120472602546 -0.0217415224761 -0.0238847993314 0.00774628389627 0.0367912612855 -0.156907364726 -0.0672090724111 -0.0318966209888 -0.0653372108936 -0.10818593204 0.108739092946 0.12053219974 -0.0679379627109 0.0343068391085 0.0413369871676 0.0285343751311 0.126785427332 -0.0829100087285 0.209721758962 0.0427330434322 0.0242591239512 0.027759745717 -0.072644174099 -0.0714080706239 0.0856280624866 -0.00943748280406 0.0276639796793 -0.0197887364775 -0.0737922042608 0.0424860604107 -0.0577048510313 -0.169021174312 0.00795494299382 -0.0849867537618 -0.116906188428 -0.0664500668645 -0.00632008817047 -0.0677633211017 0.0411918833852 -0.0232009962201 0.0219088979065 -0.148010075092 -0.0264202132821 0.0594773255289 0.058614525944 -0.0313801057637 0.100595623255 0.0203703567386 0.00994616374373 0.0187030304223 -0.00039695695159 0.0924613848329 0.0445928573608 0.0237927474082 0.0254344325513 0.0436521209776 -0.0590200088918 -0.0445587001741 -0.046671602875 -0.0785865932703 0.136968269944 -0.0166789572686 -0.123673416674 0.0168702919036 -0.0737026929855 0.0449902378023 0.00185594661161 -0.0780028924346 0.0449960380793 0.0525169335306 -0.0584308281541 0.101012043655 -0.0575717762113 0.00548814190552 -0.0617804154754 -0.0393354333937 -0.00985961128026 -0.0395112857223 0.0764027833939 -0.14065977931 0.0935868993402 0.024919854477 -0.0509615540504 0.049776237458 0.0496875233948 -0.0582672283053 -0.0400317274034 -0.168602928519 0.061263859272 0.163866713643 0.0197670906782 -0.0673607438803 0.0297160036862 0.027327965945 -0.0479068122804 0.0179755538702 -0.109503127635 -0.0473279803991 -0.0550280660391 -0.0540795736015 -0.0947164520621 -0.0308230537921 0.0519361048937 0.0824530348182 -0.00843715667725 -0.0354269817472 0.0180701650679 -0.126231178641 -0.073513045907 -0.01645844616 0.0557075105608 -0.0295284502208 -0.00463052699342 0.0163986403495 0.0739271715283 0.0371350757778 0.00858436990529 -0.0406787693501 0.118419155478 0.0337123647332 -0.0994116961956 -0.129930004478 -0.0937678292394 -0.0237918682396 0.146357625723 0.0757143050432 0.0363784618676 -0.0511148348451 -0.0799301788211 0.0471523925662 0.0731244087219 0.125856116414 -0.0695873945951 -0.165838211775 0.0298029016703 0.0569552332163 0.11815584451 0.101915195584 -0.0840693116188 0.0874884054065 -0.0258857179433 0.0148468054831 0.00710945716128 -0.0171061623842 -0.00677410373464 -0.175488129258 -0.0812412723899 -0.075624756515 0.0120882568881 -0.0152516085654 -0.0527134686708 -0.0331149399281 -0.0470139272511 0.0279416665435 -0.0266257561743 -0.034021794796 -0.0505238361657 0.10139156878 -0.0938821285963 -0.0287562906742 -0.109421469271 0.139540806413 0.0641316473484 -0.101231344044 0.0721595138311 0.0876853913069 -0.0133851235732 -0.0926641896367 0.14281308651 -0.0990808755159 0.106775738299
superstition 0.0226974524558 0.0734182968736 0.0237580966204 -0.00795616675168 -0.168496668339 0.0873830467463 -0.0294484738261 -0.0826068371534 0.0438070595264 -0.0151078803465 -0.0325580723584 -0.0840862989426 -0.0905191153288 -0.0567146576941 -0.0328407436609 0.117224700749 -0.0205429680645 -0.022711224854 -0.0167857855558 -0.0633576065302 -0.00731258653104 -0.0719172731042 0.0920312404633 0.188052982092 0.00168561853934 0.0701315328479 -0.00700016925111 0.078449614346 -0.0881420224905 -0.0734259858727 -0.0925481542945 0.10480953753 -0.00634514447302 -0.013621179387 0.0331522636116 -0.0245469491929 -0.0666389465332 0.042701985687 0.0580389760435 -0.0946072787046 -0.108030550182 0.00279405945912 -0.0875104293227 -0.0562795959413 0.00186967675108 -0.234765648842 0.00530589418486 0.07805326581 0.0155292414129 0.00181582057849 -0.0479453653097 0.0128054386005 -0.0316937491298 -0.141192182899 -0.0812545716763 -0.0108154080808 0.0556382797658 -0.00959333404899 -0.152373194695 -0.0619263239205 -0.0315644107759 0.063307158649 0.044962733984 -0.0826474428177 0.0890480279922 0.0113613735884 -0.0685625076294 -0.0436414889991 0.0366622656584 0.0499646142125 0.0361936762929 -0.0248359292746 -0.0614048726857 0.0119475163519 -0.131844997406 0.0446784198284 0.0108180828393 0.00200701784343 0.0117429438978 0.0160328727216 0.0715996921062 0.0841003581882 -0.017777312547 -0.0293049700558 0.0509729646146 0.00798559375107 -0.128774315119 -0.0366502441466 0.0846936404705 -0.0032719313167 -0.0212854966521 -0.0256579406559 -0.0613167732954 0.103388659656 -0.0748279243708 0.0367653556168 0.0262685865164 0.0815561339259 0.0299159437418 0.0378983393312 -0.0471210330725 0.0822809115052 0.000533493468538 -0.00831266585737 0.0678291022778 -0.0584369003773 0.0338872224092 -0.00535930041224 -0.0741291493177 -0.129223704338 -0.120142564178 -0.0485352985561 0.0690281540155 -0.0421332493424 -0.0243327654898 -0.0300732310861 -0.19037373364 0.0529703199863 0.0462058745325 0.0846019461751 -0.0447152592242 0.0733959749341 -0.0534975118935 0.0207713935524 -0.0329185277224 -0.123644627631 -0.0167034100741 -0.0022764953319 0.0952745079994 -0.0888675302267 0.0381517186761 -0.0133903827518 0.00761948665604 0.017838884145 -0.144617557526 -0.0665042027831 -0.0429142042994 -0.0684236139059 -0.0824686363339 0.100030057132 0.0586637072265 -0.0813158750534 0.00524137867615 0.0219753459096 0.0325799435377 0.0992953032255 -0.0789747312665 0.204247161746 0.0297846123576 0.0358006805182 0.0710559785366 -0.0511599704623 -0.0429763384163 0.111846998334 0.0255479346961 0.0515376888216 -0.010027565062 -0.0896146669984 0.0226233676076 -0.0666825920343 -0.127776667476 -0.0141178397462 -0.128166794777 -0.148893654346 -0.0483012348413 0.026220144704 -0.0361017994583 0.037241704762 -0.027978984639 0.0544432029128 -0.188943251967 0.000366863241652 0.0791271552444 -0.0115814488381 -0.0193421393633 0.0809808969498 0.00261616753414 0.0077836108394 0.0155332125723 0.000191391140106 0.0785173550248 0.0121501004323 0.0833688601851 0.0549701154232 0.0545981116593 -0.0967080518603 -0.0285330787301 -0.0805783197284 -0.0747646912932 0.179366111755 0.0430168546736 -0.124891906977 0.0213227197528 -0.0584622621536 0.0610132105649 -0.0263030622154 -0.111381053925 0.0671194568276 0.0420125648379 -0.0948449671268 0.0771889910102 -0.08148560673 0.0126844821498 -0.0654733851552 -0.0145240779966 0.0401430018246 -0.0557498373091 0.0954927504063 -0.110276915133 0.107495032251 -0.0246928688139 -0.0222992841154 -0.00463630678132 0.069054633379 -0.0680554956198 0.0133662540466 -0.12104819715 0.0307230614126 0.0966912358999 -0.0121067659929 -0.0123039651662 0.00173023017123 0.0261316858232 -0.0736646205187 -0.0237827394158 -0.104113034904 -0.0706603601575 -0.0548899546266 -0.114915370941 -0.109405472875 -0.0635352507234 0.0950446650386 0.142839983106 -0.000802449125331 -0.000460374547401 0.0404388196766 -0.121837228537 -0.102747514844 -0.0276826769114 0.0918637737632 0.00249507604167 0.0287086050957 0.0430800653994 0.0779654756188 0.0293782111257 -0.0087396716699 -0.0375895835459 0.0952415987849 0.0786266550422 -0.0972755923867 -0.154150173068 -0.112577758729 -0.0565577968955 0.171823933721 0.0391385927796 0.0511891655624 -0.0689874738455 -0.0295344106853 0.0843078568578 0.0721215680242 0.154785811901 -0.0252436529845 -0.13729442656 0.0769922733307 0.00469692936167 0.0673553496599 0.135752871633 -0.0841884016991 0.123629719019 -0.00251880777068 -0.0114853708073 0.0158676914871 -0.0700788572431 -0.00980785489082 -0.192176699638 -0.0532893538475 -0.135787218809 -0.0368617512286 -0.0138019435108 -0.074583388865 -0.0120098078623 -0.0471845716238 0.129023268819 -0.00506077427417 -0.015765145421 -0.0329663306475 0.0842370390892 -0.134433478117 -0.0824189260602 -0.0983628556132 0.158493429422 0.0619354993105 -0.107098035514 0.0477796532214 0.0844162032008 0.0330050103366 -0.08949264884 0.179710283875 -0.0959869399667 0.0665045157075
spirituality 0.075908601284 0.0789147093892 0.0301118027419 -0.0204283129424 -0.143336161971 0.0863993763924 -0.008624647744 -0.0972396284342 0.0691802501678 0.0106770060956 -0.0322787687182 -0.105742350221 -0.112719751894 -0.0518303140998 -0.0087004955858 0.0959519147873 0.00383472885005 -0.0145926391706 0.00148202455603 -0.0330179259181 -0.0491378903389 -0.0959495604038 0.0892195850611 0.193524748087 0.0484900102019 0.0313847213984 -0.00199722452089 0.107210621238 -0.0797696709633 -0.0757132768631 -0.0782980248332 0.113317228854 -0.0466541089118 -0.0237369947135 0.0179195348173 -0.00430786469951 -0.035534966737 0.0449646562338 0.0478858686984 -0.0685369521379 -0.140572145581 0.0080587817356 -0.103601954877 -0.0245801154524 -0.026694022119 -0.193554654717 0.0320004783571 0.0752210840583 0.00942696817219 0.0202956479043 -0.0689738318324 -0.0167186949402 -0.0655660927296 -0.121753521264 -0.0831168368459 -0.00615456933156 0.0864840298891 0.0251574032009 -0.147789627314 -0.0244807805866 -0.0477587468922 0.0940387174487 0.0808322057128 -0.04686236009 0.0805416405201 -0.0140256239101 -0.0446566864848 -0.0430227778852 0.0275725517422 0.0233050230891 0.000338938931236 -0.019363053143 -0.118322737515 -0.0058336770162 -0.147944629192 0.0574063621461 0.0319248996675 0.0161019638181 -0.0152243701741 0.0182266682386 0.0948011279106 0.0474241860211 -0.0217198673636 -0.0351617522538 -0.0103345597163 0.0259882733226 -0.100322730839 -0.0344885326922 0.0628434866667 -0.024681456387 -0.0496637411416 0.0203552953899 0.00574119295925 0.0818349868059 -0.010458056815 0.0719369500875 -0.0159472730011 0.0336548052728 0.0462182834744 0.00782737974077 -0.0884153693914 0.0933610349894 -0.0350369475782 0.00952980015427 0.0449785478413 -0.123936280608 0.0154427308589 -0.00930548273027 -0.0810717567801 -0.0864079445601 -0.142281726003 -0.0760795846581 0.0352858491242 -0.0275387316942 0.0212848633528 -0.0721312761307 -0.0941729620099 0.0707602128386 0.000176479632501 0.0743492841721 -0.0109129417688 0.0625608116388 -0.00208796723746 0.00848314166069 -0.0347580201924 -0.0837199538946 -0.00251156324521 0.0168333966285 0.0696353837848 -0.121071025729 -0.0248192045838 0.0164605434984 -0.00256576854736 0.0534422919154 -0.143282741308 -0.0338894426823 -0.0371848382056 -0.0589347630739 -0.0873185172677 0.0833795815706 0.117990061641 -0.0554858706892 0.0141998399049 0.0264398436993 0.0149899786338 0.0803918838501 -0.0859799981117 0.227268174291 0.025697786361 0.0553505159914 0.0348459407687 -0.0543779060245 -0.0443550087512 0.0541895478964 -0.0344317406416 0.0326024182141 -0.04554675892 -0.0619901493192 0.0339639857411 -0.0637991651893 -0.157327950001 0.0379117913544 -0.0980832949281 -0.104184709489 -0.0415698587894 0.0248999036849 -0.0416510589421 0.0548678524792 -0.0120183946565 0.0320911072195 -0.152370840311 -0.0112812481821 0.0384616851807 0.0208045728505 -0.0166418924928 0.101113028824 0.00511003565043 -0.00668666465208 0.01301721856 0.0256365798414 0.0793047845364 0.0350396484137 0.0264055784792 0.00174223282374 0.0478949509561 -0.0545793250203 -0.0333884246647 -0.0360302813351 -0.0756950452924 0.157632812858 -0.00340408831835 -0.141594424844 0.0299955569208 -0.0522425547242 0.045701701194 0.00457258475944 -0.0939067974687 0.0363718904555 0.0361801497638 -0.0523504167795 0.122220441699 -0.0827722176909 0.0438739433885 -0.0788530260324 -0.0179483685642 -0.0471091642976 -0.0619744025171 0.106011986732 -0.127270579338 0.11313803494 0.019646268338 -0.0534247420728 0.0354817174375 0.0214714612812 -0.0592712648213 -0.024565409869 -0.147005543113 0.0237179584801 0.120056010783 0.0529982820153 -0.0431531518698 0.0147137921304 0.0823588967323 -0.0487030632794 0.0185186862946 -0.0999887511134 -0.0373319201171 -0.0764575153589 -0.0627868399024 -0.0922985076904 -0.0295877680182 0.0288998745382 0.116190724075 -0.00456144660711 -0.036608748138 0.012793908827 -0.125339001417 -0.0588672310114 -0.0311503298581 0.056254055351 0.0133516211063 -0.0186829511076 0.0256464518607 0.0609188117087 0.0495140627027 -0.00213649123907 -0.0124756535515 0.124565191567 0.051927536726 -0.0566887557507 -0.124756328762 -0.0537628233433 -0.0338517315686 0.132079809904 0.0987106487155 0.0356930531561 -0.0288345515728 -0.103755660355 0.0449849329889 0.0612279064953 0.143268078566 -0.0659243315458 -0.133222028613 0.00665186764672 0.0493290275335 0.107275307178 0.130398437381 -0.0751947686076 0.0718601569533 -0.00591861596331 0.00850181281567 -0.0172451268882 0.00295418663882 -0.00989430211484 -0.167540416121 -0.0888975784183 -0.100310139358 0.00589683931321 -0.0440427847207 -0.0760306343436 -0.00583481416106 -0.0454754568636 0.0764150395989 -0.028709763661 -0.0537106692791 -0.0191671866924 0.0901093930006 -0.0703953355551 -0.037101700902 -0.10823751986 0.133838817477 0.0360373929143 -0.0931884944439 0.0704636722803 0.0652422085404 -0.0264943502843 -0.0880636796355 0.135868057609 -0.0728182271123 0.0963036715984
christianity -0.00401134043932 0.0837133750319 0.0307054314762 -0.0621878728271 -0.145933836699 0.063525646925 0.0460945442319 -0.0668938308954 0.0875606164336 -0.00473079551011 -0.0653707832098 -0.120744645596 -0.138586819172 -0.0296351667494 -0.000231794459978 0.137659937143 0.0140201169997 7.3512455856e-05 -0.00928787048906 -0.097830735147 -0.0317147299647 -0.108592286706 0.0650228708982 0.155257940292 0.0846264883876 0.0438350476325 -0.0401104874909 0.124275833368 -0.0477314516902 -0.0114222615957 -0.0458960719407 0.126794695854 -0.0364385545254 -0.0461725592613 -0.00235178973526 -0.011296373792 -0.0301114581525 0.00875036977232 0.107669137418 -0.0840413421392 -0.115178786218 0.0265541356057 -0.084360383451 0.00939995516092 0.0108306072652 -0.131589099765 -0.0223366040736 0.0416781902313 0.0916440784931 0.0426548048854 -0.0543900243938 0.017177933827 -0.0454256795347 -0.113178737462 -0.0891462117434 -0.0527570061386 0.0188409686089 0.0215000770986 -0.186532244086 -0.0132193565369 -0.0165169369429 0.0629714131355 0.104653142393 -0.0690484046936 0.0501083806157 -0.0305077061057 -0.0282805599272 0.025862082839 0.0763633772731 0.0223743394017 -0.0464142821729 0.00869081076235 -0.10158097744 0.0391335375607 -0.141852125525 0.0154248196632 0.0603389777243 0.0110149011016 0.0115982349962 0.0465296208858 0.117209687829 0.039846200496 -0.00909666158259 -0.0367063060403 0.0323487259448 -0.0333611704409 -0.0918821692467 -0.0403088480234 0.0514751933515 -0.0506917946041 -0.0454536788166 -0.0128318006173 -0.021050106734 0.0570153519511 -0.0956115052104 0.0705598816276 0.0517019145191 0.0511871576309 -0.00421067420393 0.0490748360753 -0.00585853168741 0.053672272712 -0.0334855616093 0.0475550182164 0.062194827944 -0.0274385921657 0.00340724550188 -0.021960914135 -0.0521093308926 -0.120095707476 -0.107054375112 -0.028623752296 0.080277711153 -0.0678911656141 0.0660066753626 -0.0741602927446 -0.132324546576 -0.00744856148958 0.02790463157 0.121534660459 -0.00832345336676 0.0546828471124 -0.0503288246691 0.00625793309882 0.00800539366901 -0.0467337220907 0.0655819997191 0.00383405666798 0.0445661880076 -0.0483737587929 -0.028868637979 0.0224115457386 0.00710386177525 0.0256124548614 -0.113611757755 -0.0387895181775 -0.00431250175461 -0.0722769498825 -0.0619865693152 0.10616979003 0.140859231353 -0.114664793015 0.0143248541281 0.0490372031927 0.00531382113695 0.0775558277965 -0.091135635972 0.238779813051 0.043027702719 0.0385030210018 -0.0188574250787 -0.0110402712598 -0.0521541051567 0.0648110434413 -0.0110579570755 0.0610581748188 -0.0168855581433 -0.0724104866385 -0.0267688781023 -0.018025342375 -0.113788530231 -0.0408306382596 -0.0964004844427 -0.0618024915457 -0.0532500073314 -0.030585873872 -0.0452215485275 0.0620699115098 -0.00335556152277 0.0292369686067 -0.122891828418 -0.0517311133444 0.0719318017364 0.0250036232173 -0.10759986192 0.120567291975 0.0285689849406 -0.0527198649943 0.0897205099463 0.0254729092121 0.055013448 0.0745856836438 0.0370235107839 0.0241706427187 0.0460182912648 -0.0985989570618 0.0238151941448 -0.0581816621125 -0.0673975124955 0.103787921369 0.0218432638794 -0.140758678317 0.0174880679697 -0.0818333104253 0.0815230160952 0.0217935685068 -0.0784735605121 0.04894804582 -0.00114032183774 -0.0465438589454 0.0793744027615 -0.089293859899 -0.0213807225227 -0.0764343813062 -0.0014812523732 -0.0125679587945 -0.0681442469358 0.118951022625 -0.192214131355 0.118338122964 0.0114561058581 -0.00561698386446 0.025863237679 0.0756283923984 -0.0852721855044 0.0356573164463 -0.181036755443 0.0872623994946 0.120100446045 0.0640280395746 -0.0488425642252 0.00318606826477 0.027389600873 -0.0812167152762 0.00382739142515 -0.0879826247692 -0.0717382803559 -0.100056476891 -0.118815563619 -0.0960667058825 -0.0314236357808 0.0672706663609 0.046126447618 0.0386466942728 0.00802547018975 0.0218279398978 -0.109300009906 -0.104084193707 0.0386786349118 0.0206850152463 -0.0194771569222 0.0363318622112 -0.0193571597338 0.033694203943 0.0488714165986 -0.000926016713493 -0.0793078765273 0.137765064836 0.0567773655057 -0.107650607824 -0.128213658929 -0.0612297467887 -0.0193334370852 0.128173083067 0.053835298866 0.0346383713186 -0.053341653198 -0.0662913322449 0.0450339652598 0.0948725119233 0.145516127348 -0.0457201562822 -0.142872065306 0.0921698361635 0.0257725808769 0.111999355257 0.0745814368129 -0.0566147901118 0.080835595727 -0.0347223393619 -0.0113798733801 0.00123681977857 0.0201157219708 -0.0654311254621 -0.163542106748 -0.069879449904 -0.0418960601091 -0.0454394966364 -0.0541250258684 -0.0537583604455 -0.0426230058074 -0.0898781716824 0.0634290501475 0.00201670476235 -0.0166878215969 -0.0118186958134 0.0535409860313 -0.103075295687 -0.0273840799928 -0.1045120731 0.0813140645623 0.0798873603344 -0.0891497507691 0.0297384876758 0.116517029703 0.00884335767478 -0.0919499471784 0.132036522031 -0.0516368485987 0.125017851591
freethinker -0.0365105345845 0.0892958268523 -0.0259432345629 0.00531017966568 -0.178047806025 0.10857231915 0.0157807897776 -0.0578321367502 0.028272209689 0.0601341165602 -0.0728857815266 -0.10587413609 -0.115040332079 -0.0925211682916 0.00945876166224 0.12916263938 0.0161807592958 -0.00765098724514 0.0470324195921 -0.086833037436 -0.0226737540215 -0.109300434589 0.0392414405942 0.169789224863 -0.00317474361509 0.0534692294896 -0.016141006723 0.102643802762 -0.100844167173 0.00804775673896 -0.108930617571 0.125497952104 -0.048500072211 -0.0152472201735 -0.0320241302252 -0.00266105006449 -0.0524464733899 -0.0079705780372 0.118922024965 -0.0513997599483 -0.0788706466556 0.0536311939359 -0.100105389953 0.00713287340477 0.00080162496306 -0.193335175514 -0.0360803119838 0.0547309555113 0.00130579911638 0.0252706333995 -0.0754325613379 0.0225117895752 -0.0799626484513 -0.103276692331 -0.0985430851579 -0.00924398936331 0.0543020367622 -0.0159952454269 -0.1762034446 -0.00502349762246 0.00301789399236 0.0662198588252 0.040066961199 -0.0704516917467 0.0358287319541 -0.0192793104798 -0.0314984060824 -0.048088837415 0.0403168946505 0.0711474567652 -0.0316343419254 -0.0372245386243 -0.0904566720128 0.0447630472481 -0.140664458275 0.020420787856 0.0265988484025 -0.0593400783837 0.101549267769 0.0780293047428 0.0743035525084 0.077069863677 -0.030550211668 -0.0552536807954 0.117526322603 -0.0325005203485 -0.128853514791 -0.053345810622 0.0155633147806 -0.00501285772771 -0.0841217786074 0.0141988806427 0.0237283017486 0.104602642357 -0.0370731689036 0.0248470734805 -0.0183030739427 0.0419804193079 -0.0207394454628 0.0456152148545 0.03789890185 0.0649055093527 -0.0124884974211 -0.0139721455052 0.039751265198 -0.0332143343985 0.0809517353773 -0.0210529528558 -0.101312801242 -0.143996521831 -0.161598756909 -0.0361523404717 0.0909040570259 0.0116688404232 0.00382104935125 -0.0457214228809 -0.208143651485 0.0161877144128 0.051468603313 0.0835381597281 -0.0496783405542 0.0917406380177 -0.0724919885397 0.0233996603638 0.0184461008757 -0.133744135499 0.028012285009 0.011054133065 0.0513260178268 -0.0619585439563 0.115213595331 0.00410142447799 0.0100839417428 -0.00368811981753 -0.0936292186379 -0.111719928682 -0.0629025101662 -0.0680797845125 -0.0917366296053 0.108334191144 0.0419965423644 -0.126961305737 0.0103949587792 0.0770731195807 0.0277711525559 0.103453531861 -0.129322528839 0.255029946566 0.0503579303622 0.0694451481104 0.0544810965657 -0.127806901932 -0.0149903902784 0.101062647998 0.0390504933894 0.0300440955907 0.118110768497 -0.106241613626 0.0462928563356 -0.0455984771252 -0.0752037391067 -0.0485996641219 -0.133929595351 -0.107162900269 -0.0710026919842 0.0157959870994 -0.0646918863058 0.0449457876384 -0.00728221982718 0.0781891420484 -0.164843827486 -0.0152911599725 0.128423854709 -0.00538246612996 -0.0267270244658 0.187028497458 -0.0205967724323 -0.0153643433005 0.0542632862926 0.000892444746569 0.0478510707617 0.0221572052687 0.0324948988855 0.0817566812038 0.000543592497706 -0.142337501049 -0.0162891987711 -0.0837267041206 -0.0470310896635 0.168776094913 0.0343580171466 -0.0981527417898 0.0699159726501 -0.0196702089161 0.0550384037197 0.0213488936424 -0.0969685837626 0.0381276458502 0.011237764731 -0.104957617819 0.0965105742216 -0.0407729297876 0.0163611825556 -0.0357283763587 -0.0753711313009 0.0804654359818 -0.0405622720718 0.104688510299 -0.169754713774 0.0895298570395 -0.0315637029707 0.00988485012203 0.000242942434852 0.133342713118 -0.0640189871192 0.0142249800265 -0.228966906667 0.0397977530956 0.121590703726 0.0735517442226 -0.0214759390801 -0.0350400991738 0.0435799770057 -0.0677469596267 -0.0134183056653 -0.124242082238 -0.0713125914335 -0.032197073102 -0.15860234201 -0.128198340535 -0.0310061518103 0.119501747191 0.134837135673 0.0420283786952 0.0444361492991 0.050683580339 -0.104083500803 -0.0918541327119 0.03622232005 0.0472345724702 -0.000842376088258 0.0822481960058 0.0375101342797 0.0932343229651 0.00738721108064 0.028605774045 -0.114064075053 0.143835768104 0.0640972480178 -0.164202690125 -0.151920884848 -0.129860118032 -0.0304044038057 0.200628906488 -0.00823214091361 0.0302259884775 -0.0234483666718 -0.0149409882724 0.104005970061 0.0231402516365 0.193769469857 -0.034179661423 -0.20340912044 0.0885514616966 -0.0278410408646 0.134126037359 0.123730897903 -0.0628958791494 0.155033037066 0.0115458760411 -0.0126349879429 0.070882178843 -0.00690479530022 -0.107857592404 -0.116272866726 -0.036709651351 -0.117655918002 -0.107629612088 -0.0161041822284 -0.0162154827267 -0.01250636857 -0.060373518616 0.117031633854 0.017942853272 -0.0665187835693 0.0209613610059 0.0919482409954 -0.129076510668 -0.0575848333538 -0.096351698041 0.127846971154 0.0489996522665 -0.147995129228 0.0135787557811 0.125237941742 0.053819231689 -0.138648018241 0.172117158771 -0.0709704831243 0.0890993848443
everything 0.0302610658109 0.151554599404 0.0819967761636 -0.0802786797285 -0.146678626537 0.114367894828 0.0495168715715 -0.137070760131 0.0864035338163 0.0438589341938 -0.167715325952 -0.175773844123 -0.282033115625 -0.00314242625609 0.0549494475126 0.169262737036 0.064126059413 0.0283805858344 -0.0107531929389 -0.0920014828444 -0.0770652890205 -0.185262992978 0.076505959034 0.117506965995 0.0959958210588 -0.0123456418514 -0.0256977956742 0.203060880303 -0.0513206198812 0.0773292705417 -0.0170907396823 0.158134400845 -0.129604905844 -0.029863351956 -0.0698896795511 0.00853359885514 0.0202278476208 -0.0308958701789 0.109113976359 -0.115294627845 -0.153436094522 0.118931166828 -0.0635101124644 0.0426933169365 0.0129518825561 -0.10400184989 -0.0835202932358 0.0118004111573 0.128219857812 0.160366520286 -0.0422227159142 -0.011184877716 0.000644737447146 -0.0779439434409 -0.095384195447 -0.100080832839 0.0885146930814 0.0755517780781 -0.19573238492 0.0524247698486 -0.0406532436609 0.101131491363 0.154716178775 -0.0327418707311 -0.0131020555273 -0.0788184031844 -0.0438068024814 0.0483842268586 0.063083589077 0.0205905809999 -0.135099098086 0.0385817065835 -0.209570676088 0.0351253114641 -0.135566860437 0.0836385264993 0.0637514740229 0.0254494138062 0.012520079501 0.124573871493 0.172100499272 0.0799968615174 -0.0213598273695 -0.0647983327508 -0.0395782031119 0.0214834604412 -0.00557644898072 -0.0515404231846 -0.0189184416085 -0.0827105864882 -0.118729226291 -0.0180360861123 0.0858263969421 0.0572956353426 -0.0674325525761 0.0244147330523 0.0135221704841 0.0186751056463 0.0386705361307 -0.00505369435996 -0.0635515078902 -0.0294869244099 -0.0186529606581 -0.00685076415539 0.0396450869739 -0.0740789324045 -0.0361672155559 -0.0299969334155 0.0466985628009 -0.144423574209 -0.0608421377838 -0.0655473396182 0.0305746868253 -0.0561859682202 0.193702831864 -0.134689331055 -0.0443432591856 -0.0460706800222 -0.0154870888218 0.127281785011 0.0391088463366 0.0212386827916 0.0106699606404 -0.00118158059195 0.0860380604863 -0.0195779558271 0.105265595019 -3.69734261767e-05 -0.0252540409565 -0.0166298896074 -0.0512335598469 0.104290395975 -0.0147233670577 0.0617019981146 -0.0671157464385 -0.0545152388513 0.11337236315 -0.0766852498055 -0.0222058407962 0.0378508940339 0.275092154741 -0.14589586854 0.0277781076729 0.0249415431172 0.0223394855857 -0.0283207409084 -0.0747705847025 0.2784037292 0.0101880077273 0.0684390217066 -0.0900211185217 0.0975933969021 -0.0861177518964 -0.0043479562737 -0.05477296561 0.158396735787 0.0687840357423 -0.101066045463 -0.0382685363293 0.108094424009 -0.122019991279 -0.0373697504401 -0.0494097582996 -0.0323696807027 -0.074376732111 -0.0719710215926 0.00995604414493 0.107576549053 -0.0415097922087 0.0834893211722 -0.132499098778 -0.0747821033001 0.053911447525 0.0981405600905 -0.130078688264 0.243734374642 0.0257176533341 -0.0621964968741 0.153683379292 0.0827782675624 0.0169951524585 0.022174147889 -0.0493764430285 0.0105646178126 0.0223449356854 -0.10895922035 0.0278679784387 -0.0222248807549 -0.0812666863203 0.0573720708489 -0.0257756914943 -0.141872271895 0.0857507064939 -0.0423501618207 0.0757318809628 0.0705234929919 -0.0936307311058 0.0384676083922 -0.0154239814728 0.00763413636014 0.0855475515127 -0.0740561634302 0.0419510342181 -0.0805115252733 -0.0247346125543 -0.0322047993541 -0.140527382493 0.134316653013 -0.297391712666 0.120360605419 0.0140633862466 0.0175083260983 0.0734120607376 0.109652027488 -0.0838181599975 -0.0475697740912 -0.259176403284 0.168406546116 0.144845157862 0.165969669819 -0.102605313063 0.0256643854082 0.152013361454 -0.0577390342951 0.0202336851507 -0.0521731972694 -0.0983094871044 -0.182145684958 -0.131261736155 -0.138496518135 -0.00895007420331 -0.00129002216272 0.0547252185643 0.0707225948572 0.0433498211205 0.0125417895615 -0.096832677722 -0.11660271883 0.066026777029 -0.0834113508463 0.0599128901958 0.00146062020212 -0.0726084113121 0.00906492583454 0.00341791240498 0.0335869528353 -0.0845867171884 0.260447233915 -0.0103740533814 -0.115911386907 -0.117777094245 0.0199623443186 -0.017546178773 0.147313162684 0.1460762918 -0.0464708916843 0.0316839255393 -0.112110078335 0.0398981124163 0.0920639112592 0.121862798929 -0.125039249659 -0.137772008777 0.0221452806145 -0.0653590634465 0.133713781834 0.0385050177574 -0.0207003820688 -0.0292653981596 -0.0462005212903 -0.0166909899563 -0.029030803591 0.136762931943 -0.00746943382546 -0.149825021625 -0.137801259756 0.0276890713722 -0.0560470074415 -0.16221536696 -0.0485631488264 -0.100961275399 -0.149933904409 0.0592914521694 -0.00645622983575 -0.0997996255755 0.0182514451444 0.0564413629472 -0.0791801065207 0.0389982163906 -0.0616442002356 0.0283912196755 0.0389722213149 -0.00962948054075 0.0610554069281 0.0856924280524 -0.0177311822772 -0.118973866105 0.0759415924549 0.0729102641344 0.206868126988
secularism 0.0532370992005 0.0572870820761 0.0232864860445 -0.00635487912223 -0.150629386306 0.0649786964059 -0.00816605892032 -0.118697986007 0.0674971938133 0.0609305500984 -0.0704178586602 -0.127123370767 -0.118529185653 -0.0345960669219 -0.0111720757559 0.141317158937 -0.00320697715506 -0.0080991871655 -0.0170218218118 -0.0776281431317 -0.0451128892601 -0.062821187079 0.0986819863319 0.187485709786 0.00528603140265 0.081938482821 -0.0165434535593 0.0652985945344 -0.111131243408 -0.0696598365903 -0.0939613729715 0.0989949032664 0.00617145653814 -0.0230726823211 0.00600009970367 0.0269198771566 -0.0436818003654 0.0100695397705 0.0819917991757 -0.092753380537 -0.118123158813 0.00394938793033 -0.108747988939 -0.0458559542894 0.0181999783963 -0.191917002201 -0.00540621904656 0.0748224705458 0.0529899485409 0.0339100472629 -0.0702995583415 0.0255349464715 -0.0616795420647 -0.11325982213 -0.0814825296402 -0.019243368879 0.0374879054725 -0.0231751371175 -0.155564591289 -0.0304388143122 -0.0250808950514 0.0686525776982 0.0747763961554 -0.0518951676786 0.073219627142 -0.00993476435542 -0.0700405389071 -0.00893800612539 0.0627729147673 0.0331431776285 -0.0217581950128 0.0121427504346 -0.0766914561391 0.0278991311789 -0.137783572078 -0.0231992620975 0.0720167756081 0.00814811885357 0.0504007935524 0.0480628237128 0.0970236063004 0.0717110559344 0.0125350402668 -0.045121319592 0.0612739138305 -0.00828827638179 -0.115168772638 -0.0383941866457 0.0754192322493 -0.00779314013198 -0.0708903074265 0.0109048029408 -0.00711631029844 0.0665332078934 -0.0752537548542 0.0069969817996 0.0311889536679 0.0539679341018 -0.00888654403389 0.0590370893478 -0.0133159738034 0.0921812281013 -0.0237435773015 0.00381976622157 0.0563552454114 -0.0710249319673 -0.00627994630486 -0.0197003204376 -0.0704393461347 -0.132526874542 -0.142813995481 -0.0115804737434 0.0678221732378 -0.0364698246121 0.032629776746 -0.0337997600436 -0.150173664093 0.0184554662555 0.0114736557007 0.0999182090163 0.0219707544893 0.0672056302428 -0.0315743722022 0.00101186789107 -0.0327413231134 -0.0780570730567 0.027616597712 0.0102595537901 0.0429010242224 -0.099159501493 0.025733333081 0.0100869406015 0.0368752107024 0.036186363548 -0.130357339978 -0.0695833861828 -0.0434399805963 -0.0969729721546 -0.101034544408 0.0884149596095 0.0938137322664 -0.0512009896338 -0.00676992442459 0.0252381302416 0.0317846871912 0.105964779854 -0.060645237565 0.195858985186 0.0272015798837 0.0266465041786 0.00477385660633 -0.0410139225423 -0.0193631555885 0.0615161135793 0.0198993645608 0.0883316099644 0.00294747995213 -0.0993797928095 0.0129950614646 -0.0450442917645 -0.125723466277 -0.0249579288065 -0.0962392762303 -0.0944143384695 -0.0438770614564 0.0455820187926 -0.0495133325458 0.0618317052722 0.0110925287008 0.0457429029047 -0.168894767761 -0.00787508487701 0.0682629719377 0.0255859047174 -0.0179208572954 0.139278709888 -0.0425866469741 -0.00010789668886 0.0484639592469 -0.0161690860987 0.0652841255069 0.013468388468 0.0583769753575 0.0468941256404 0.0536351799965 -0.114214263856 0.00238001649268 -0.0660939216614 -0.0769137740135 0.145734727383 0.0368213132024 -0.107012338936 0.00691978260875 -0.0290093794465 0.0703268498182 0.00236239982769 -0.0965916290879 0.0369175635278 0.0254308767617 -0.0746304690838 0.0990225970745 -0.0638641938567 -0.00983102247119 -0.0469308234751 -0.0300171058625 0.010764721781 -0.0661345943809 0.075381912291 -0.127981886268 0.104696795344 -0.0237610321492 0.00456120818853 0.00808117445558 0.0586850047112 -0.0425781235099 -0.0279226992279 -0.185855478048 0.0841606035829 0.10690510273 -0.00422447640449 -0.0754335299134 -0.0226691663265 0.00713007245213 -0.0535817220807 -0.00107748433948 -0.104165278375 -0.0183267872781 -0.0517295598984 -0.0982274636626 -0.130553886294 -0.0112718148157 0.0964338853955 0.0837424993515 0.027140436694 -0.00578230060637 0.0385626554489 -0.107200756669 -0.086411267519 -0.0106282243505 0.0835281014442 -0.0183220226318 0.0598859973252 0.00915782526135 0.0753561407328 0.0352254509926 0.0119933001697 -0.0370916388929 0.109140448272 0.0870242863894 -0.13669924438 -0.142593741417 -0.0683297738433 -0.070677049458 0.121681876481 0.0403387062252 0.0090751554817 -0.095362894237 -0.0574420019984 0.107391193509 0.0643844753504 0.144102960825 -0.059362128377 -0.149857059121 0.0653649643064 -0.00910627190024 0.0943722054362 0.134513556957 -0.077954672277 0.0846521034837 -0.0504787452519 -0.0207361001521 0.0144676286727 -0.0501589849591 -0.0685295239091 -0.168554335833 -0.0537001378834 -0.126548007131 -0.042884003371 -0.0259388498962 -0.043140605092 -0.0594749860466 -0.0342844836414 0.107164420187 0.0460464768112 -0.00403650896624 -0.0258079413325 0.0675090253353 -0.125079885125 -0.0104547534138 -0.124689608812 0.161229580641 0.0668871253729 -0.114198729396 0.0674067139626 0.0980318933725 0.0292321611196 -0.0938341096044 0.190958380699 -0.0998345166445 0.0985926240683
impossible 0.0408267863095 0.114203192294 0.081720083952 -0.0534152239561 -0.128977715969 0.0588721185923 0.0399711355567 -0.109179481864 0.0376152358949 -0.00773327704519 -0.0771326199174 -0.0980094596744 -0.147657051682 -0.027744570747 -0.0323733277619 0.125484511256 0.0412251614034 3.90338864236e-05 -0.0159055329859 -0.0412289351225 -0.0261528231204 -0.124156028032 0.0737291872501 0.144910186529 0.067106179893 0.0283705536276 -0.0254499167204 0.101746156812 -0.072246491909 0.0146704539657 -0.0466465689242 0.096406519413 -0.0774547755718 -0.0469893813133 -0.0144513593987 -0.0179140716791 -0.0488175153732 0.0414258912206 0.0696259215474 -0.0830661803484 -0.104972295463 0.0477483905852 -0.0490015000105 -0.0314733013511 -0.0109276184812 -0.163533881307 -0.017665296793 0.0554215274751 0.0625108033419 0.0369129963219 -0.0522847734392 0.0190484598279 -0.0206570029259 -0.114412605762 -0.0918038114905 -0.0505029968917 0.0495446324348 0.0411504544318 -0.160922408104 -0.0252401139587 -0.0639848187566 0.0818240568042 0.0599940605462 -0.0631290599704 0.0736948251724 -0.0352305881679 -0.0298136044294 -0.00533739617094 0.0313743166625 0.0326920673251 -0.061140589416 0.0257179625332 -0.0985966995358 0.004200396128 -0.103935740888 0.0655941367149 0.0483042560518 0.0307079553604 0.00330233969726 0.0501446388662 0.0804877877235 0.0858280360699 -0.0146532366052 -0.0490795709193 -0.00169139134232 0.022307889536 -0.0478137582541 -0.0411614365876 0.0674402713776 -0.0390967726707 -0.0378797911108 0.000281120941509 -0.0465354397893 0.0770696848631 -0.0758255422115 0.0646650418639 0.0360780023038 0.0630822181702 0.0181078873575 0.0261957738549 -0.0877068936825 0.00861127022654 0.00133176834788 0.0522536151111 0.0618550702929 -0.0516296103597 -0.0111344782636 0.00914632901549 -0.0473227128386 -0.117700405419 -0.098258331418 -0.067258387804 0.0593851208687 -0.0510789752007 0.0717954263091 -0.0860273391008 -0.0829571187496 0.00700812460855 0.0241237338632 0.0755590051413 0.0363160856068 0.0342928431928 -0.0228224564344 -0.00490380916744 -0.016537450254 -0.0365855433047 0.0229949243367 0.0144323511049 0.0500573664904 -0.0501758642495 -0.0480210185051 0.0127025926486 0.000783869822044 0.0464660227299 -0.115602076054 -0.0420166254044 0.00597835332155 -0.0733227580786 -0.0428509265184 0.0960417538881 0.139041930437 -0.0937622115016 0.00893615745008 0.00959757622331 0.0388488695025 0.0697370693088 -0.0800901800394 0.22300092876 0.0293319281191 0.0198553390801 0.0258841887116 0.0113064609468 -0.0429600514472 0.0508537217975 -0.00994909927249 0.0742981731892 -9.39607925829e-05 -0.0275927223265 -0.0108269760385 -0.00692152557895 -0.130948677659 -0.0184784214944 -0.0959097966552 -0.113620236516 -0.0581350177526 -0.00237152469344 -0.0396726801991 0.0612876862288 -0.00268555548973 0.0442478731275 -0.138454377651 -0.0558786429465 0.0588007085025 0.0681618005037 -0.0344272814691 0.108127720654 0.0279707554728 -0.020407307893 0.0751264467835 0.027313599363 0.0636079460382 0.0464622862637 0.0114611443132 0.0379249416292 0.0243530012667 -0.0756358131766 -0.00135612790473 -0.0512907914817 -0.0572724454105 0.106996707618 0.0311898738146 -0.121001720428 0.0128686195239 -0.0461636483669 0.0686162784696 0.0227776225656 -0.0852522552013 0.0552711300552 -0.00468926038593 -0.0392316505313 0.0812191367149 -0.0994834825397 0.0287549626082 -0.0781858786941 0.000651900714729 -0.0130582442507 -0.0781902819872 0.103672146797 -0.156632110476 0.126752972603 0.00931338407099 -0.0388339720666 0.0419737994671 0.0294052958488 -0.0684271156788 -0.0014951643534 -0.177271321416 0.0906603038311 0.115784443915 0.0285268351436 -0.082046084106 0.0194745827466 0.0770219266415 -0.0652483999729 -0.0280375238508 -0.0988045707345 -0.0995629355311 -0.110589653254 -0.107200607657 -0.0964496582747 -0.000444767327281 0.0397884361446 0.057739276439 0.0475369542837 0.00370157160796 -0.0130432276055 -0.11088386178 -0.070294611156 0.0123707326129 -0.00647567072883 -0.00660337554291 -0.0354813560843 -0.0200285185128 0.0244377013296 0.0181977655739 -0.001943112351 -0.0460217297077 0.131603509188 0.0597643256187 -0.132461979985 -0.113318227232 -0.0655033364892 -0.0534752272069 0.154899418354 0.0918059572577 0.0198306590319 -0.0485154055059 -0.0581932999194 0.0612689182162 0.110871739686 0.117154993117 -0.0679482892156 -0.133564472198 0.0676475912333 -0.00338305090554 0.085581369698 0.0931575745344 -0.0482324808836 0.0536978207529 -0.0556640960276 -0.000941675796639 0.00989226065576 0.0223568622023 -0.00676550064236 -0.172863319516 -0.0903866887093 -0.0387011133134 -0.0199752226472 -0.0978073626757 -0.0401986986399 -0.0808928534389 -0.0930365249515 0.10588927567 -0.0201031696051 -0.0268619470298 -0.0556772388518 0.0679808408022 -0.122497007251 -0.0464501567185 -0.0966203138232 0.0766704007983 0.0633266493678 -0.0454822182655 0.0849845185876 0.087455958128 0.0129456212744 -0.102677688003 0.164809346199 -0.00979500263929 0.110005922616
understand 0.0606818981469 0.149296596646 0.0750687867403 -0.0499859414995 -0.133661165833 0.070276260376 0.0666285082698 -0.145940378308 0.0206150915474 0.0797267481685 -0.106154225767 -0.129176259041 -0.185132965446 -0.0649369508028 0.0220882091671 0.130284011364 0.102905586362 0.0201598312706 0.00112998194527 -0.0652705579996 -0.0727244466543 -0.151159316301 0.0631797909737 0.139938846231 0.0651384294033 0.0584322065115 -0.0220581963658 0.148519411683 -0.104093544185 0.0402979813516 -0.0701069608331 0.159022212029 -0.12386854738 -0.0432791337371 -0.048509709537 0.0155482636765 -0.0324462763965 0.0513566024601 0.0917590856552 -0.0699984207749 -0.107219479978 0.0933629050851 -0.0520537905395 -0.0390664413571 -0.0549050234258 -0.161636993289 -0.066129796207 0.051168974489 0.0472764335573 0.0929760336876 -0.093577042222 0.0287600643933 -0.0644113719463 -0.0975320264697 -0.105218417943 -0.0436850525439 0.0866847187281 0.0332196168602 -0.176130652428 0.0318742208183 -0.0593081228435 0.0975849181414 0.0750052928925 -0.04215914011 0.0620967335999 -0.0530255995691 -0.0253405105323 -0.0624152719975 0.0240810345858 0.03970971331 -0.0607947558165 0.034595746547 -0.160662829876 0.0137959355488 -0.108157195151 0.0804848745465 0.0125925196335 0.00241637532599 0.0329646207392 0.105974122882 0.0945178121328 0.125476002693 -0.0402583256364 -0.0629029795527 0.00476045254618 0.00322159123607 -0.011952531524 -0.0180596876889 -0.018380234018 -0.0790992081165 -0.0771561637521 0.0377247184515 0.00819809362292 0.0783939138055 -0.027805486694 0.0796630457044 -0.0177764799446 0.0112006273121 -0.0143578527495 0.0336310230196 -0.0821367204189 0.0321132689714 -0.0244574211538 0.029189798981 0.0189984813333 -0.0716118440032 0.0412497259676 -0.0091813262552 -0.0516016297042 -0.168401569128 -0.175692856312 -0.0649066641927 0.0883167982101 0.00148460525088 0.0721406787634 -0.121828973293 -0.0762643888593 0.0137874474749 -0.0306357182562 0.0581695996225 0.0313166491687 0.0112264817581 0.0252246949822 -0.0161117911339 -0.00617120228708 -0.0534532256424 0.0244875717908 0.030350625515 0.00857857335359 -0.071014419198 0.0400559268892 0.0446512140334 -0.004183400888 0.0709909573197 -0.0930157676339 -0.103142738342 0.0138927064836 -0.0741956159472 -0.0465570613742 0.10346608609 0.150999635458 -0.106410339475 -0.00186317320913 0.0496548563242 -0.00764564750716 0.0593085847795 -0.125519007444 0.285539597273 0.0533658899367 0.0278302598745 0.0220643430948 -0.0392460264266 -0.049701847136 0.018800187856 -0.0174883492291 0.0747839510441 0.0865761339664 -0.0252590905875 -0.00359012885019 0.0132977506146 -0.126285374165 -0.031894210726 -0.0955432280898 -0.0774356722832 -0.0810009464622 0.00199152086861 -0.057584412396 0.0320081338286 -0.00933641754091 0.112140990794 -0.151896521449 -0.0775913000107 0.0691274777055 0.0764616802335 0.0107158413157 0.185849130154 -0.0122404266149 -0.0630348175764 0.103201329708 0.0430027283728 0.00621588947251 0.0643308460712 -0.0731035470963 0.0690227001905 -0.0155163863674 -0.103252060711 -0.0205425396562 -0.0434303246439 -0.0331310257316 0.0902830138803 0.034696392715 -0.102483168244 0.0573483295739 0.013698361814 0.0288845747709 0.0613882392645 -0.102352812886 0.0110045233741 -0.0239901281893 -0.00322962971404 0.1261895895 -0.0577118173242 0.102314688265 -0.091457568109 -0.051745429635 0.0119061013684 -0.0579000152647 0.137079954147 -0.208539098501 0.118528664112 0.0075304559432 -0.00823664758354 0.0596073642373 0.0634406805038 -0.0302920844406 -0.026503611356 -0.224891707301 0.097519941628 0.149840712547 0.0571917705238 -0.0809477120638 -0.00834918767214 0.097894474864 -0.0471063517034 -0.0475214831531 -0.0928578004241 -0.101166315377 -0.0985882133245 -0.133068233728 -0.0940967425704 0.00746884336695 0.0559129416943 0.0935267806053 0.104849785566 0.0285138972104 -0.0458325371146 -0.10243999213 -0.0699619278312 0.0104250935838 -0.0316094905138 0.0174730662256 -0.00419915420935 -0.00197038333863 0.0496009327471 -0.0260659884661 0.0303130708635 -0.0882733389735 0.179073691368 -0.00497002992779 -0.178844451904 -0.07543682307 -0.0589919351041 -0.0184160079807 0.17383107543 0.112354151905 0.0309613235295 -0.024371188134 -0.058516792953 0.095450758934 0.0459239147604 0.115970902145 -0.104435920715 -0.16877694428 0.0625991821289 -0.0384161099792 0.123860813677 0.0973358601332 -0.0294547230005 0.0600500926375 -0.0426562689245 -0.0151654044166 -0.0123036224395 0.11666958034 -0.0338302329183 -0.157703503966 -0.0454466082156 -0.0784482434392 -0.0615017078817 -0.155012354255 0.0205399300903 -0.0532487742603 -0.0778537169099 0.125813275576 0.00969316158444 -0.0550174899399 0.0166646037251 0.0947674289346 -0.145295321941 -0.0332287661731 -0.0911268889904 0.0559086948633 0.0355332195759 -0.0843209177256 0.0944913476706 0.111491382122 0.0110366716981 -0.143205270171 0.173607185483 -0.0031118853949 0.176422923803
christians 0.0606716498733 0.0969220772386 0.0377120003104 -0.0787688046694 -0.119523070753 0.000775406486355 0.14284221828 -0.0516984686255 0.0766390562057 -0.0128679415211 -0.096232958138 -0.130409836769 -0.183359876275 0.0232864022255 -0.0165740121156 0.187725543976 0.00907580461353 0.0424193926156 0.0524055026472 -0.151455357671 -0.131338760257 -0.094796448946 0.129614531994 0.0904177501798 0.0955125018954 -0.00351322372444 -0.0122007513419 0.0183435119689 -0.0701043084264 0.00356724835001 -0.045075841248 0.146921947598 -0.0863322690129 -0.0234470609576 0.0463123731315 -0.0191457439214 -0.0185662154108 0.063143260777 0.0721361860633 -0.0615656077862 -0.134556159377 0.0415954552591 -0.0964284464717 0.0331768542528 -0.0449212454259 -0.0841949880123 -0.0571280829608 0.00171757757198 0.085735142231 0.041751332581 -0.0437339656055 0.000362555671018 -0.0459359548986 -0.137756481767 -0.0500798001885 -0.00260982383043 -0.00457956409082 -0.0419589132071 -0.157067626715 -0.0543892420828 -0.0366032570601 0.06115623191 0.148307099938 -0.0340831317008 0.043365329504 -0.0220741182566 0.00820567645133 0.0939635559916 0.0546292290092 -0.0223377421498 -0.0174333248287 0.00837357155979 -0.099328763783 0.0312149077654 -0.154459029436 0.0395986922085 -0.019711850211 0.0425896756351 0.019561689347 -0.00457206694409 0.138559550047 0.016162071377 0.0738050937653 -0.0794160440564 -0.0612843744457 -0.0288351327181 -0.0736828371882 -0.0144419325516 0.120182700455 -0.0260055307299 -0.0168269928545 -0.0518537424505 -0.0707328766584 0.053247731179 -0.0795758590102 0.0636173337698 0.0738302022219 0.0698006525636 -0.0336282551289 0.118016473949 0.0177112538368 0.0555178783834 -0.11964712292 0.0563258863986 0.0313323140144 -0.0300379879773 -0.0626707598567 -0.0733536034822 -0.0547627322376 -0.180151447654 -0.0300645455718 -0.0602963082492 0.129807189107 -0.0641900971532 0.108320385218 -0.0379707664251 -0.0571198239923 0.0383142195642 0.0165853891522 0.133818611503 0.0132250320166 0.0392178446054 -0.10758267343 0.0442063547671 -0.0565152093768 -0.00129729812033 0.106332086027 0.0648552849889 0.050655156374 -0.104953482747 -0.0396584756672 -0.0542374067008 0.00937104132026 0.0653301253915 -0.1422444731 -0.0704758539796 -0.0160309616476 -0.0436462722719 -0.0652488768101 0.0642284080386 0.191626012325 -0.137788265944 0.0556125044823 0.0543004758656 0.00816355925053 0.139807105064 -0.0458205454051 0.209913387895 0.071032308042 0.00150125368964 -0.0767764821649 0.0179526843131 -0.101618424058 0.0741123408079 0.0220456067473 0.0987358689308 -0.0493061430752 -0.083366677165 -0.0307837873697 0.0413664095104 -0.205417305231 -0.068338945508 -0.0200949478894 -0.0468498766422 -0.0700874850154 -0.100294366479 -0.0170922614634 0.0584062449634 0.015523259528 -0.0185801144689 -0.0825319215655 -0.0249277129769 0.0779981613159 0.0623170807958 -0.0767181590199 0.0970154702663 0.105390682817 -0.0815993398428 0.113939449191 -0.0161022879183 0.0533069707453 0.0990827232599 0.0223165750504 -0.00732822762802 0.0781273916364 -0.0627974867821 0.080721065402 -0.0414620190859 -0.0278605930507 0.0592618398368 0.0573124177754 -0.150095701218 -0.011677226983 -0.11756914854 0.0371784716845 0.0282165370882 -0.0684001222253 0.068899281323 0.0646149143577 -0.00732344947755 0.0907047390938 -0.118441820145 -0.0733966529369 -0.0716628208756 -0.0549068339169 -0.0634149238467 -0.0566514655948 0.11084163934 -0.126026958227 0.120343662798 0.0623311810195 -0.0581403076649 0.00120870687533 0.0523305386305 -0.0402880609035 -0.0484866797924 -0.13962623477 0.106492124498 0.177756085992 -0.0055139074102 -0.0742338895798 0.0173555668443 -0.00494557665661 -0.0753889530897 0.00646624621004 -0.0632993206382 -0.0660007074475 -0.102109350264 -0.0644347369671 -0.12196610868 -0.0341265872121 0.0162387657911 0.00424607144669 0.103207983077 -0.0238756481558 -0.0390201061964 -0.0882773026824 -0.0844195857644 -0.0167759377509 0.0217824652791 -0.00577643606812 -0.0182328280061 -0.00378031423315 0.0726676657796 0.0601635687053 -0.0441823415458 -0.0801619142294 0.105553001165 0.0332010388374 -0.0832660496235 -0.0698561742902 -0.0543052256107 -0.0731962621212 0.102109164 0.114842630923 0.0207120720297 -0.0347929038107 -0.141564309597 0.00888689234853 0.0542676970363 0.148799151182 -0.0726795494556 -0.196491643786 0.12243257463 0.128372088075 0.0847097709775 0.0582361295819 -0.0174624156207 0.0306167658418 -0.0711204186082 -0.0364308767021 -0.0374382510781 0.0347219258547 -0.0153687614948 -0.204142853618 -0.0952847450972 0.00215508393012 -0.00749400258064 -0.112202063203 -0.0561915226281 0.0289852637798 -0.146138548851 -0.0502611026168 0.0186477154493 -0.0167688392103 0.00275267241523 0.0434008613229 -0.143246129155 -0.0545963793993 -0.0912769436836 0.149502679706 0.138314127922 -0.115083247423 0.0373347960413 0.0662842094898 0.0461833365262 -0.0650068372488 0.154928967357 -0.0555027127266 0.141119927168
religions -0.00698031624779 0.114286139607 0.0282155498862 -5.39516986464e-05 -0.144499465823 0.0845701023936 0.0196287930012 -0.0956322029233 0.00177353166509 0.0715375319123 -0.0707560107112 -0.10651165247 -0.136043295264 -0.0702569559216 -0.026143444702 0.137978747487 0.0259874910116 -0.0110978633165 0.017786424607 -0.0215691998601 -0.0394226238132 -0.109650619328 0.0574493892491 0.155347198248 0.038362134248 0.0271781999618 -0.0178028345108 0.105233214796 -0.0837581008673 0.000193561980268 -0.0936014503241 0.0961988940835 -0.0456636101007 -0.0617784634233 -0.00256791873835 0.00972821842879 -0.0449095666409 0.0403929613531 0.0971774086356 -0.0510340668261 -0.0598289594054 0.0502040423453 -0.0859368667006 -0.0269755031914 -0.000329847738612 -0.177980422974 -0.0140680046752 0.051267594099 0.0117994854227 0.0212487317622 -0.0609678179026 -0.000240767752985 -0.0686550661922 -0.125954732299 -0.0960701704025 -0.0156307257712 0.0253198686987 0.0200215447694 -0.166043564677 -0.000117675088404 -0.0562921985984 0.0713418796659 0.0276082195342 -0.0858686044812 0.0802637264132 -0.0632724836469 -0.0347937680781 -0.0377637892962 0.046898663044 0.0579629391432 -0.0527984201908 0.00166225782596 -0.100653156638 0.0113039426506 -0.123855829239 0.0441479422152 0.0588488280773 -0.0151149192825 0.0629648044705 0.0627551674843 0.0852487832308 0.0920157060027 -0.0191000103951 -0.0819533318281 0.067537650466 -0.0112790390849 -0.103285223246 -0.0402914322913 0.0670180916786 -0.0138607472181 -0.0631088763475 0.0131352450699 -0.0132212387398 0.103741750121 -0.0107981804758 0.0386593975127 0.033989071846 0.0656179189682 -0.0129117174074 0.0269852634519 -0.011734392494 0.0398035421968 0.020274175331 0.0475368052721 0.0776794701815 -0.0530340895057 0.0215528681874 -0.0184446182102 -0.0916322693229 -0.145493760705 -0.146030336618 -0.0600009188056 0.0963093861938 -0.0372233986855 0.0648578256369 -0.0459508597851 -0.154399245977 0.00865926686674 0.0136383194476 0.0812240615487 0.00679646618664 0.0669708400965 -0.0567146986723 0.023638529703 0.00164153624792 -0.111684679985 0.00400937814265 0.039440471679 0.047347355634 -0.0610804930329 0.0168159436435 -0.0148822916672 -0.0298628173769 0.00785226281732 -0.142117738724 -0.0719195902348 -0.0280658379197 -0.074742667377 -0.0908196121454 0.124932691455 0.0992459133267 -0.114233575761 -0.0226732138544 0.0485668927431 0.016450908035 0.114653617144 -0.109388016164 0.253291428089 0.0506158135831 0.0461523346603 0.0456437878311 -0.0735142976046 -0.0433926470578 0.078285805881 0.0179570168257 0.0508715026081 0.0588240101933 -0.0324365869164 0.0444860421121 0.00289995409548 -0.126569539309 -0.0478050448 -0.128487676382 -0.133012324572 -0.0776313915849 -0.0148236826062 -0.0652746483684 0.063532628119 -0.0164411477745 0.0760929957032 -0.143850147724 -0.0566901229322 0.0898975729942 0.0391665697098 0.00691513111815 0.172117903829 0.0119367484003 -0.011763356626 0.0639031678438 0.0259472895414 0.0564226917922 0.0309025980532 0.0104871746153 0.0689620003104 0.0108139375225 -0.083621494472 -0.0249543394893 -0.0890692397952 -0.0479747653008 0.134445741773 0.0185873415321 -0.110192745924 0.0535248816013 -0.0133333904669 0.0393490642309 0.0490331500769 -0.0812767446041 0.0654201880097 0.00657766126096 -0.0823512077332 0.0727593824267 -0.0661114007235 0.0340575873852 -0.047818209976 -0.0152006270364 0.0155021194369 -0.0534881912172 0.0901290178299 -0.158725976944 0.107561908662 -0.0360227189958 -0.0332925654948 0.017589988187 0.0819713026285 -0.0629853308201 0.0024645277299 -0.224194303155 0.0635792836547 0.115619972348 0.0254272483289 -0.0697737559676 -0.00552823068574 0.0698787495494 -0.0748757719994 -0.0158795472234 -0.110175311565 -0.112903960049 -0.0924659818411 -0.127952247858 -0.129577234387 0.00425034062937 0.0657317563891 0.088717751205 0.0388226397336 0.0189269185066 0.0106286434457 -0.119260512292 -0.050119843334 0.0379118733108 0.0293609946966 -0.0200777873397 0.00571676809341 0.00240305415355 0.0733496695757 0.00131118507124 0.0294374749064 -0.0605486407876 0.12351577729 0.0668628588319 -0.171019524336 -0.133333295584 -0.127231866121 -0.0541297569871 0.174905240536 0.0548654459417 0.0443038865924 -0.0482240058482 -0.043904427439 0.0820405259728 0.104690901935 0.163144811988 -0.049506649375 -0.176422193646 0.0546620227396 -0.029639499262 0.114136748016 0.110725469887 -0.0584692955017 0.12215552479 -0.04504923895 -0.00490367691964 0.0464232154191 0.0058330129832 -0.0638179033995 -0.13546307385 -0.0471216291189 -0.074852026999 -0.068091891706 -0.0570065267384 -0.0449453555048 -0.0700906440616 -0.0807163491845 0.104021288455 -0.0315579809248 -0.0561417452991 -0.0442641563714 0.0911765918136 -0.11960273236 -0.0743696764112 -0.107384882867 0.103512749076 0.0394551306963 -0.0978189185262 0.0816831886768 0.104281447828 0.0363268367946 -0.115442708135 0.193072617054 -0.0421428829432 0.103567786515
religious 0.0934249386191 0.168336197734 0.0689533278346 -0.02820985578 -0.104889176786 0.0991605222225 -0.00893264450133 -0.169793203473 -0.0518679916859 0.0768005996943 -0.0987885296345 -0.136950150132 -0.111141264439 -0.0662038549781 -0.0432876460254 0.206892102957 0.0348479151726 -0.0425205491483 -0.0473965890706 -0.0690333470702 -0.0103068789467 -0.0915749743581 0.0614006482065 0.114504992962 -0.0340529121459 0.0807006582618 0.0272220168263 0.0644826665521 -0.0808778107166 -0.0253141392022 -0.0857789590955 0.127558723092 -0.0345752499998 -0.104510620236 0.0213095806539 0.0259340573102 -0.0499679893255 0.0301822442561 0.103816442192 -0.109985217452 -0.041263140738 0.0160422250628 -0.0705655068159 -0.116619765759 0.00914271175861 -0.18501418829 -0.0349123813212 0.0382583327591 0.0626834481955 0.0126245748252 -0.0727455243468 0.0317012630403 -0.0245090108365 -0.0739532932639 -0.0570257864892 -0.0470422357321 0.0134048871696 -0.0444822572172 -0.174472182989 -0.0340984612703 -0.026239041239 0.0807197615504 0.038150344044 -0.0302317291498 0.0970360413194 -0.0926974639297 -0.125863403082 -0.0351671166718 0.0396917797625 0.127439185977 0.00860775262117 -0.0177712030709 -0.0400336757302 0.0219294559211 -0.146760866046 0.0257530584931 -0.00327527872287 0.0167556740344 0.105294249952 0.118200957775 0.0550447441638 0.135288566351 0.0383211039007 -0.0545480698347 0.146714404225 -0.079877756536 -0.063881136477 -0.0524791143835 0.0554130300879 -0.0387997217476 -0.0742089375854 0.00795618072152 -0.0676715746522 0.124391011894 -0.0989563539624 -0.0141614126042 0.0589922480285 0.0816784128547 0.0127493049949 0.0501556433737 0.00159707129933 0.0632299259305 -0.000250638084253 0.019014718011 0.065972790122 -0.0352095961571 -0.0194318462163 -0.0067848386243 -0.0397698059678 -0.113741628826 -0.195636823773 -0.055622190237 0.106890171766 0.0172358397394 -0.00968709681183 -0.0824561417103 -0.13007466495 -0.0115694431588 0.0317356847227 0.0824780315161 0.0440060794353 0.0670627057552 -0.0772039815784 -0.0304914563894 0.0157085414976 -0.101099573076 0.0205912385136 0.0470585487783 0.0661170482635 -0.0834423676133 0.148799300194 -0.0393728725612 0.020785279572 0.00454219384119 -0.116159766912 -0.0692596957088 0.0143793718889 -0.101626299322 -0.147030606866 0.131374239922 0.0798009335995 -0.0599342174828 -0.028008216992 0.066810451448 0.051747713238 0.112778961658 -0.0877888426185 0.212601318955 0.000448242528364 0.0530173294246 0.0643404498696 -0.0611192323267 -0.0285752620548 0.10880086571 0.058112822473 0.0852587670088 0.117387637496 -0.0707560628653 0.0153986951336 0.0328427888453 -0.0725119113922 -0.072427123785 -0.0633624047041 -0.213641226292 -0.103575609624 0.120253689587 0.00266352877952 0.118247412145 -0.00935530755669 0.109241075814 -0.20301887393 -0.0617865510285 0.0731090903282 -0.0325953364372 0.106736131012 0.15641143918 0.0294315647334 -0.0128658590838 0.0935370475054 -0.0648921206594 0.0278803501278 -0.0270686261356 0.0332970432937 0.117452353239 -0.00132396956906 -0.126177281141 -0.0732969120145 -0.0910772979259 -0.0236122831702 0.185515299439 0.0290628038347 -0.0934206098318 -0.0279008969665 0.086067430675 0.0882414802909 -0.0122295692563 -0.108590789139 0.0390221439302 0.0364770703018 -0.123804949224 0.0756525918841 -0.0826621204615 0.00354614295065 -0.0321446880698 -0.0683457255363 0.0748450756073 -0.104044049978 0.110858000815 -0.168952986598 0.0189755205065 -0.0331007502973 0.0867066979408 -0.0156835205853 0.030139233917 -0.0117228031158 -0.0405916683376 -0.157736897469 0.0830989181995 0.0471439547837 -0.0463113933802 -0.0900347828865 0.021664025262 0.0410789102316 -0.041038222611 -0.0547372400761 -0.118722371757 -0.0488757491112 -0.0564566142857 -0.160501852632 -0.112677365541 -0.0419203490019 0.164622396231 0.104004882276 0.0427893772721 0.0217284336686 -0.00418509496376 -0.0961812511086 -0.11419800669 -0.026226343587 0.0527847409248 0.0512383617461 0.0695405304432 -0.0150926522911 0.135601207614 -0.0584684573114 0.0309034679085 -0.0586094595492 0.139444604516 0.0806135758758 -0.296341389418 -0.126990273595 -0.157083243132 -0.128977045417 0.182618618011 0.0421195439994 0.0273624528199 -0.0693619474769 0.0909478664398 0.15154081583 0.126902088523 0.223298311234 -0.0534701570868 -0.203469067812 0.105188518763 -0.100900121033 0.0611041486263 0.124232582748 -0.065194003284 0.112319782376 -0.0485919713974 0.00537623045966 0.0466510094702 -0.0301034078002 -0.0141971567646 -0.140910163522 -0.0620434693992 -0.107936926186 -0.0828580409288 -0.0339871793985 -0.038036737591 -0.0809700042009 -0.0384707003832 0.184480756521 0.0555233024061 -0.0525425225496 -0.0271725151688 0.119545035064 -0.177754446864 -0.0633076280355 -0.0595730654895 0.167062327266 0.0318994782865 -0.102370597422 0.0507436618209 0.0821734368801 0.103353448212 -0.110503464937 0.262364596128 -0.0908515825868 0.0737033560872
christian 0.0567110218108 0.101716883481 0.0101297199726 -0.013502961956 -0.131353661418 0.0101907979697 0.0582665987313 -0.000768800848164 0.0379213541746 -0.0283864680678 -0.0546830706298 -0.100763045251 -0.107345491648 -0.0212816409767 -0.0309030693024 0.180043295026 -0.0421392023563 -0.0154843972996 0.0860713422298 -0.0955453813076 -0.068449921906 -0.0556254759431 0.137064710259 0.0915815234184 0.0628987848759 0.00117986509576 -0.050839394331 0.000816745974589 -0.0644985213876 -0.0270439237356 -0.090695604682 0.156094118953 -0.0818014889956 -0.0150065002963 0.0924452766776 -0.0593879446387 0.0214777197689 0.068633839488 0.0728408694267 -0.0409741327167 -0.117139093578 0.0137975141406 -0.0900083109736 0.0534459650517 -0.0971034988761 -0.122899621725 -0.0646000802517 0.0191029980779 0.0484318993986 -0.0283787250519 -0.0910701081157 -0.0207166932523 -0.0606873072684 -0.13258215785 -0.0414497964084 0.00448753591627 -0.0104347132146 -0.000585938687436 -0.142889082432 -0.0202654153109 -0.0103343604133 0.0636103749275 0.114744432271 -0.059959590435 0.0379235707223 -0.011365391314 0.0141638042405 0.032766699791 0.0380929894745 0.0254923049361 0.00524704484269 -0.0653985887766 -0.0749859958887 0.00928634405136 -0.140537545085 0.0528560057282 0.0278764814138 0.019281771034 0.0761704817414 -0.0160382222384 0.0768287107348 -0.000591161893681 0.0768707096577 -0.0410122014582 -0.0315456911922 -0.0342106111348 -0.123130865395 -0.00609906204045 0.116681791842 -0.00903733447194 0.039002738893 -0.013745861128 -0.0913408845663 0.0946190208197 -0.0592883452773 0.0467930324376 0.0926605388522 0.0717352479696 -0.0579482391477 0.119334340096 0.0661639869213 0.0846777260303 -0.125801950693 0.0618933662772 0.0559542216361 -0.0281168241054 -0.00508991535753 -0.0491482950747 -0.0918750017881 -0.176595821977 -0.0267696473747 -0.0671313032508 0.122832342982 -0.0809030756354 0.0633606165648 -0.0047516496852 -0.140968590975 0.0615853257477 0.0753880143166 0.124539859593 -0.065071195364 0.0770334005356 -0.118216395378 0.0638512223959 -0.0401609875262 -0.062105178833 0.0895391181111 0.106816455722 0.116266429424 -0.114107683301 0.0297254044563 -0.100151434541 0.00400367751718 0.0403907224536 -0.172279477119 -0.0769157409668 -0.0482553690672 -0.0419790446758 -0.102505043149 0.146924704313 0.102385893464 -0.116742789745 0.0705722495914 0.0651079565287 0.0400834269822 0.210357114673 -0.0919663459063 0.241295158863 0.0555066503584 0.0170304011554 -0.0053030969575 -0.0498817674816 -0.131169095635 0.152392730117 0.0239898543805 0.0529912859201 -0.0305020902306 -0.0916108638048 0.00219974573702 -0.0412851236761 -0.182345658541 -0.0644446909428 -0.045655015856 -0.105976440012 -0.0896456539631 -0.119838103652 -0.0626285970211 0.0279536228627 0.00960596557707 -0.00389995286241 -0.0968872904778 -0.0344705171883 0.0760947018862 0.038127720356 -0.0270345266908 0.0825513899326 0.119589537382 -0.0605287104845 0.0393560267985 0.0038183752913 0.0628672242165 0.0939157903194 0.0463392995298 0.0310896262527 0.0761597901583 -0.0340847931802 0.00972073897719 -0.0712791159749 -0.0366970710456 0.0838494226336 0.0550345033407 -0.108866840601 -0.0214967988431 -0.126685291529 0.0269504413009 0.014954585582 -0.0348944664001 0.114038847387 0.0622965805233 -0.0572580248117 0.0879246145487 -0.0837326943874 -0.0553235560656 -0.0623019039631 -0.0482265651226 -0.0218892302364 -0.0145839666948 0.0976354777813 -0.15530282259 0.0797137469053 0.100828267634 -0.0724075064063 0.0279366504401 0.0296170599759 -0.0698633417487 -0.00865050591528 -0.119567528367 0.027346374467 0.214172184467 -0.00807644519955 -0.0377970039845 0.0550607517362 -0.0154798636213 -0.0593896247447 0.00721858208999 -0.0763663500547 -0.0806192457676 -0.0156954154372 -0.065678589046 -0.10479067266 -0.0647432357073 0.0554379187524 0.0733946934342 0.0415252111852 0.00616756593809 -0.0562425106764 -0.10442071408 -0.0996365398169 0.00757544208318 0.0358271114528 -0.0241479258984 -0.0237889364362 0.00379403633997 0.110028736293 0.031066596508 -0.0125349480659 -0.119872361422 0.0831872150302 -0.00369251705706 -0.122370749712 -0.0787813812494 -0.109432980418 -0.0223615113646 0.138468042016 0.0841351076961 0.0447694063187 -0.0291357021779 -0.0834056735039 0.0290275514126 0.0595797225833 0.170983821154 -0.0594814456999 -0.253692418337 0.120005652308 0.165962383151 0.119260713458 0.0325416177511 -0.0165529530495 0.103537522256 -0.0662631765008 0.00921457726508 -0.00401982245967 0.0387426801026 -0.0102658187971 -0.168779864907 -0.0879087820649 0.00384184997529 0.0156692005694 -0.0574621036649 -0.0482753962278 0.0603859126568 -0.142431125045 -0.0727672800422 -0.018927609548 -0.0203345064074 -0.00951235368848 0.126151025295 -0.159953013062 -0.0976841822267 -0.0844182893634 0.175471901894 0.106977172196 -0.141912132502 0.0112166777253 0.0659689381719 0.0155046032742 -0.102634452283 0.16788944602 -0.0940875336528 0.125216946006
beautiful 0.00995938666165 0.0330344997346 0.0218674670905 -0.0264354646206 -0.141559883952 0.0471694916487 0.0256382916123 -0.0951076894999 0.125590160489 -0.00446519721299 -0.0527789853513 -0.139198467135 -0.110949315131 -0.0201946981251 -0.0103772440925 0.11309684813 0.00179122074042 0.0236875414848 -0.0255170855671 -0.130798906088 -0.098371528089 -0.0370567813516 0.102133363485 0.228261590004 0.0814561471343 0.0580420084298 -0.0233990121633 0.0710528641939 -0.0541875138879 -0.0725714936852 -0.0611416473985 0.11662029475 0.000929670408368 -0.0192527398467 0.0157090909779 0.017509534955 -0.0510768666863 0.0501877069473 0.0226365569979 -0.10841999948 -0.163105607033 -0.00817462615669 -0.0760328173637 -0.0415367223322 0.0157992150635 -0.175975754857 0.0602707713842 0.0738654434681 0.0629701465368 0.0474882274866 -0.0358636304736 0.0469135418534 -0.0545910149813 -0.120740510523 -0.126250728965 -0.0222924891859 0.0650366842747 -0.0109675517306 -0.157035961747 -0.0916162952781 -0.0336636416614 0.0844915136695 0.104839853942 -0.0713433474302 0.0596643164754 -0.0138989882544 -0.0238444954157 0.0430606007576 0.0735891163349 -0.0324199236929 0.00752715673298 0.0312292333692 -0.0953780561686 0.0203241035342 -0.150782600045 0.0450393073261 0.00452551664785 0.0602504946291 -0.063195772469 -0.0201278794557 0.112808600068 0.0522923730314 -0.0034244924318 -0.0509281493723 -0.00388123188168 0.0143649838865 -0.101354762912 -0.0307564325631 0.140433982015 -0.0153049034998 -0.0519656613469 -0.0371349677444 -0.0283891167492 0.0566894076765 -0.0976177752018 0.0609829686582 0.0147974649444 0.0284561049193 -0.00650056824088 0.0517511256039 -0.0768620446324 0.108223773539 -0.0434287041426 -0.00397286424413 0.0627921074629 -0.0838823094964 -0.0186459794641 -0.0123595530167 -0.066477753222 -0.105676420033 -0.144768595695 -0.0367200896144 0.019100876525 -0.0368473567069 0.0421377383173 -0.038386233151 -0.105696164072 0.0592075772583 0.0033400231041 0.105066455901 0.0313714332879 0.00574460625648 -0.0086999470368 -0.00155496876687 -0.0357136838138 -0.0543351508677 8.10690180515e-05 -0.0132106775418 0.0719355270267 -0.147359445691 -0.0924796015024 0.0081819370389 0.036431491375 0.0439429879189 -0.13748113811 -0.0115170041099 -0.0235669594258 -0.0882932916284 -0.0710489749908 0.0864506587386 0.152963638306 -0.0660724565387 0.0256611127406 0.0113064339384 0.039893168956 0.0796658694744 -0.0765436217189 0.190105333924 0.042197894305 -0.00341990683228 -0.00630076602101 0.0150262573734 -0.0360828414559 0.015306907706 -1.26242866827e-07 0.0467600151896 -0.101012863219 -0.0669495016336 0.00191484694369 -0.0635432228446 -0.206444725394 0.00067077256972 -0.115186065435 -0.0545613914728 -0.017122939229 0.0273446887732 0.00322433630936 0.0586477965117 0.0120985340327 0.0176759064198 -0.15746435523 0.0633381903172 0.0533101931214 0.00443470664322 -0.060724504292 0.0845837518573 -0.0288269948214 -0.00913737155497 0.0506823472679 -0.0289854910225 0.106854073703 0.0223200321198 0.0457539409399 -0.0273909736425 0.0490484945476 -0.0835254043341 0.0169344451278 -0.0278562251478 -0.06494833529 0.106566436589 0.0372134521604 -0.180071279407 0.0130691407248 -0.104561969638 0.0739771127701 -0.000255250110058 -0.131803870201 0.0128137357533 0.0213358029723 -0.0535049438477 0.104889720678 -0.0951313376427 -0.0481236614287 -0.0894093886018 -0.0113822817802 -0.0468258075416 -0.0586929731071 0.0991138741374 -0.0747187510133 0.168963253498 -0.0153933996335 -0.0401164516807 -0.0271546412259 0.0336404442787 -0.0582907088101 -0.00803434289992 -0.113147966564 0.0572645030916 0.0876503363252 -0.00613159779459 -0.0427725985646 -0.0348794534802 0.00212953495793 -0.0420745946467 0.0119225904346 -0.0972348898649 -0.0252502895892 -0.1125549227 -0.0762029141188 -0.119375005364 -0.0207362454385 0.0332405753434 0.0688354074955 -0.0149806616828 -0.0647361651063 0.0514936931431 -0.112719200552 -0.106700196862 -0.0311919935048 0.100699141622 -0.00962997414172 -0.00642253318802 0.0217710342258 0.0414241105318 0.0797298997641 -0.0161544959992 0.00142144819256 0.111692078412 0.115500882268 -0.0300334338099 -0.163766592741 -0.0680645927787 -0.0492652319372 0.103937759995 0.0909880101681 0.0327039174736 -0.0710549503565 -0.109473496675 0.0596627108753 0.0694836080074 0.126999899745 -0.0653436630964 -0.0626655966043 0.0484697595239 0.0702316239476 0.0495747253299 0.147250235081 -0.0707069709897 0.0378726013005 -0.00945362448692 -0.0408463217318 -0.0250191371888 -0.0769807323813 -0.040335483849 -0.208597972989 -0.0698375254869 -0.0898981466889 -0.00405539572239 -0.0425883606076 -0.0669118613005 -0.035601451993 -0.0176681149751 0.0572054423392 0.0280524902046 0.00222981278785 -0.0328565090895 0.0500224493444 -0.0892276987433 -0.0321881398559 -0.120592959225 0.121768914163 0.0711655467749 -0.0980691462755 0.0696682780981 0.0744441971183 0.00682556955144 -0.0042427922599 0.16825774312 -0.0966664999723 0.0957763940096
something -0.0139808384702 0.133979260921 0.0285449773073 -0.0299764294177 -0.141368195415 0.114097289741 0.085334405303 -0.123730048537 0.0107594560832 0.105219483376 -0.137625366449 -0.125395551324 -0.184478789568 -0.0770023092628 0.0191993843764 0.140411451459 0.0591759346426 0.0235583726317 0.0342713408172 -0.0740684270859 -0.108598224819 -0.157371520996 0.0501450262964 0.140848860145 0.0535469315946 0.0166836045682 -0.018156003207 0.111928515136 -0.101733386517 0.0835470482707 -0.107760034502 0.132699295878 -0.0956016480923 -0.0397970564663 -0.0700364857912 0.0643294602633 -0.0253232177347 0.00945897772908 0.115723259747 -0.0576253719628 -0.0838043317199 0.133519604802 -0.0673585906625 -0.00779016502202 -0.0266049634665 -0.156650215387 -0.0782402455807 0.0414393618703 0.0167333837599 0.121537782252 -0.0647747740149 0.0146376704797 -0.062356069684 -0.089778997004 -0.106761939824 -0.0418123863637 0.0735858753324 -0.0194973237813 -0.174353957176 0.0171709284186 -0.0303835067898 0.0830866321921 0.0637624412775 -0.0554163008928 0.0402812510729 -0.0542833805084 -0.0301571246237 -0.00208090571687 0.0506412386894 0.038358900696 -0.109253019094 0.0623479411006 -0.138406783342 0.029414428398 -0.0978774130344 0.0472991429269 0.0570400729775 -0.0761955678463 0.103992283344 0.130290672183 0.108007177711 0.137904420495 -0.0142677975819 -0.111957572401 0.0731991305947 0.0178272742778 -0.0526162721217 -0.0466356314719 0.0377747416496 0.00349467736669 -0.134318545461 0.0399869605899 0.0320264920592 0.0578914135695 -0.0391252078116 0.010069899261 -0.00787302944809 0.0296403821558 -0.0535567514598 0.0182851143181 -0.0223131030798 0.0184469800442 -0.00999694224447 0.0448267310858 0.0218603741378 -0.0621649809182 0.0164511520416 -0.0338776558638 -0.0870150327682 -0.185109063983 -0.133136600256 -0.0528879798949 0.0868963301182 -0.00893717072904 0.0882068499923 -0.0755146965384 -0.0958933010697 -0.0400166995823 0.0241457074881 0.0873575359583 0.068242624402 0.0318015068769 -0.0384170338511 0.0156251750886 0.0196911729872 -0.0867435857654 0.0342868305743 0.021747706458 -0.0172291342169 -0.0171220935881 0.0472078546882 0.0174539387226 -0.00353686604649 0.0377836227417 -0.0792852267623 -0.110589370131 -0.0187367983162 -0.0624120719731 -0.0485940091312 0.0833856835961 0.123216181993 -0.1060038656 -0.00159241736401 0.0637916103005 0.0158338602632 0.0647442117333 -0.107849687338 0.243490755558 0.0766449272633 0.0334386639297 0.0130379572511 -0.0570189990103 -0.0117119206116 0.0429772920907 0.0116491001099 0.109608314931 0.117163747549 -0.0711954534054 0.0426398180425 -0.000968991022091 -0.122025944293 -0.0872764363885 -0.113409221172 -0.0338561013341 -0.077603533864 -0.00127557327505 -0.0594837330282 0.0656604170799 -0.00125329825096 0.074039183557 -0.152500703931 -0.0112264184281 0.0972167178988 0.0808594077826 -0.0332608819008 0.240456536412 -0.0295375362039 -0.0291536636651 0.127003461123 0.00596676254645 0.0212042704225 0.0324700623751 -0.0350030660629 0.102976329625 -0.0419883541763 -0.14353017509 0.0235791169107 -0.0628000348806 -0.0171902645379 0.0998898968101 0.0464349240065 -0.081345513463 0.0952147617936 -0.0034213536419 0.0267900563776 0.044975604862 -0.104465611279 0.00408737966791 -0.0322155021131 -0.0561836212873 0.110190398991 -0.0542118921876 0.0598176009953 -0.055754121393 -0.074182279408 0.0223712921143 -0.024760870263 0.094329148531 -0.19656214118 0.1387616992 -0.0480750985444 -0.000300826883176 0.0346196182072 0.0911310613155 -0.0644037947059 0.0020044632256 -0.302578061819 0.10218449682 0.140377283096 0.0926412567496 -0.1074674353 -0.045535299927 0.0877619460225 -0.0639435052872 -0.0125538585708 -0.0970068201423 -0.123069770634 -0.0945321768522 -0.174591943622 -0.145275682211 0.0129410773516 0.0784964635968 0.0713136270642 0.111451558769 0.0617986358702 0.0163150224835 -0.110953234136 -0.0600969977677 0.0476486645639 0.00702732102945 -0.0042776609771 0.0540509596467 -0.0272153057158 0.0900790989399 -0.00782975833863 0.0453180894256 -0.107997149229 0.184389919043 0.0406397506595 -0.207942456007 -0.117545776069 -0.0763153135777 -0.0687940716743 0.1487095505 0.0474565885961 0.00344388280064 -0.0146454870701 -0.0897160246968 0.11328393966 0.051330730319 0.151895865798 -0.0946063026786 -0.207688048482 0.0662250593305 -0.086583532393 0.139249280095 0.129591420293 -0.066662363708 0.0662020668387 -0.0525995828211 -0.0120070502162 0.0510353967547 0.0615100115538 -0.11738807708 -0.143849387765 -0.0285309944302 -0.086795270443 -0.114691399038 -0.104551076889 0.0179621782154 -0.124421946704 -0.0850853696465 0.0865300670266 0.0195837765932 -0.0813441723585 0.0266315657645 0.0469169020653 -0.163257360458 -0.0186187587678 -0.110033161938 0.0595983117819 0.0459132678807 -0.106858342886 0.0787788704038 0.110276475549 0.0506547279656 -0.138927355409 0.190725415945 -0.000540906505194 0.142838120461
ignorance 0.0637415573001 0.0940272435546 0.0661758780479 -0.0582341216505 -0.132391557097 0.0494187436998 -0.00156226288527 -0.0945687741041 0.0526008158922 -0.0157699007541 -0.0478098802269 -0.0694934651256 -0.0647928491235 -0.0142078083009 -0.0501677133143 0.16207498312 -0.0123663740233 -0.0308800172061 -0.0447575449944 -0.0943482667208 0.000300180079648 -0.071139395237 0.0879788771272 0.147637784481 0.0311695672572 0.055443122983 -0.0247313771397 0.0643132477999 -0.0510148517787 -0.0554319731891 -0.0696146413684 0.0989483222365 -0.0136470170692 -0.0603779554367 0.0595857948065 -0.0363744460046 -0.0459065400064 0.0395475849509 0.0648940876126 -0.0793738737702 -0.0779837369919 -0.0195907671005 -0.0730636119843 -0.0534041374922 -0.000425873615313 -0.181315019727 0.00584194203839 0.0733250677586 0.0797772109509 -0.00990916788578 -0.0556923002005 0.00653552729636 -0.0217646230012 -0.109182052314 -0.0597600191832 -0.0296723302454 -0.0109478309751 -0.0100839501247 -0.18334171176 -0.0675432011485 -0.0352273583412 0.0570704042912 0.0878884643316 -0.0675244554877 0.0889362469316 -0.0602406300604 -0.0656868815422 0.0079881157726 0.0463937968016 0.0676086097956 0.0181889235973 -0.00156245997641 -0.0283903349191 0.0263191964477 -0.131976887584 0.0162616576999 0.047390177846 0.0454803705215 0.040564827621 0.0248619094491 0.061696048826 0.0352979376912 0.0250379126519 -0.0273490659893 0.0465626232326 -0.0259473901242 -0.0932879522443 -0.0408799685538 0.106202304363 -0.00685710366815 -0.00705533288419 -0.0218355618417 -0.102699130774 0.079005651176 -0.100489027798 0.0269478447735 0.074548766017 0.108156390488 0.0139433266595 0.0607229731977 -0.0149662038311 0.0619926415384 -0.00857166852802 0.049795024097 0.0673756077886 -0.0324142836034 -0.0405463799834 0.0119161410257 -0.0436729304492 -0.120389252901 -0.0902069956064 -0.0367797985673 0.0821733772755 -0.0752114206553 -0.00184023939073 -0.0561264008284 -0.144754558802 0.00812991149724 0.0663457214832 0.116935573518 0.00702656758949 0.061946157366 -0.0655505508184 0.010973231867 -0.0355946458876 -0.0427303127944 0.0251789279282 0.0390224382281 0.103485919535 -0.0683227330446 -0.00791436620057 -0.0331182740629 0.0305259879678 0.0399849526584 -0.130570143461 -0.040763977915 -0.028340311721 -0.0646590441465 -0.0994954481721 0.108992829919 0.0919992774725 -0.073015652597 0.00539330067113 0.0109743559733 0.0476432554424 0.131107449532 -0.0612276792526 0.184141278267 0.0391420684755 0.0264571774751 0.0247754380107 -0.0253157038242 -0.0423912443221 0.0850403606892 0.00828684587032 0.064563497901 -0.0329478047788 -0.0595536231995 -0.00712686870247 -0.0314587838948 -0.118412397802 -0.0352861396968 -0.0707789286971 -0.139271751046 -0.0682370960712 0.0216065403074 -0.0252480022609 0.0551514960825 -0.00967359822243 0.017443805933 -0.161255642772 -0.0579499676824 0.0300836693496 -0.00359546416439 -0.0321748405695 0.0499679706991 0.0529472008348 -0.00846800021827 0.0426062084734 -0.0428508631885 0.0721335634589 0.028488015756 0.0551553145051 0.0582652613521 0.0508214794099 -0.0675182268023 -0.0160453803837 -0.0664680674672 -0.0542226433754 0.135370358825 0.0289379172027 -0.10725248605 -0.0461558327079 -0.0439075864851 0.100586026907 -0.00829409435391 -0.0744755864143 0.0774489343166 0.0367736816406 -0.0689986869693 0.0621606633067 -0.118931479752 -0.0269488748163 -0.0574643872678 0.00193179619964 0.0140975182876 -0.0566456690431 0.0801933705807 -0.128429993987 0.0700746551156 0.0206922311336 0.00333597441204 0.016497194767 -0.0101820128039 -0.0625138655305 -0.0140743423253 -0.127590656281 0.0829351991415 0.0931675359607 -0.0555759370327 -0.053666844964 0.0248282402754 0.00180011626799 -0.0986329466105 -0.00713607436046 -0.104790523648 -0.0550060532987 -0.0528165251017 -0.107195556164 -0.0964406430721 -0.0517212562263 0.0854879319668 0.058965459466 0.000122129960801 -0.00314576388337 -0.0125685716048 -0.116093449295 -0.108618140221 -0.000635240459815 0.053341742605 -0.00315065891482 0.0121149607003 -0.0112002883106 0.0782399624586 0.0198898296803 -0.00790972355753 -0.0527960062027 0.0896254554391 0.0816592648625 -0.152540937066 -0.118534117937 -0.107427686453 -0.0652909651399 0.152380511165 0.0528755970299 0.0554862506688 -0.0760886818171 -0.00966869853437 0.074361667037 0.126591905951 0.146689072251 -0.0404465533793 -0.173233449459 0.132882475853 0.009252182208 0.0649582445621 0.0878980308771 -0.0715724378824 0.0835161432624 -0.0565902069211 0.00566034857184 -0.00354211241938 -0.0422112867236 -0.000231922545936 -0.179505586624 -0.0702142417431 -0.0485788434744 0.00576731888577 -0.0204006712884 -0.0473023690283 -0.0694842264056 -0.0784937813878 0.0946221500635 -0.000195120810531 0.0229094959795 -0.0356128364801 0.100338034332 -0.137490823865 -0.0675354897976 -0.0878730043769 0.145404443145 0.0939396694303 -0.0829865261912 0.052844516933 0.0884058699012 0.0522466041148 -0.0740912482142 0.193060129881 -0.0983901098371 0.071980252862
salvation 0.077034406364 0.0246743392199 0.0857850685716 -0.091489776969 -0.148536264896 -0.00136871193536 0.0656200349331 -0.0530086420476 0.161083325744 -0.0758401677012 -0.0762479305267 -0.0765658393502 -0.0973907113075 0.0127281723544 -0.0342405661941 0.149730950594 -0.0461160466075 0.00446753297001 -0.0227156467736 -0.165934443474 -0.0567513927817 -0.0785754024982 0.138502836227 0.156041190028 0.0998518690467 -0.0103234071285 -0.0500680953264 0.0372794605792 -0.037333894521 -0.0458535291255 0.00347391841933 0.10220066458 -0.0455741770566 -0.025552989915 0.0476387813687 -0.0624233856797 -0.0437546670437 0.0313826277852 0.0367098934948 -0.117640383542 -0.16827891767 -0.0122449407354 -0.071827813983 -0.00444202497602 -0.00834429170936 -0.143766120076 0.00679790554568 0.0532669425011 0.130388230085 0.0238366592675 -0.0510238967836 0.0266669280827 -0.00621492788196 -0.101824358106 -0.0876376330853 -9.3594295322e-05 -0.0117608914152 0.000114595757623 -0.175922095776 -0.0882300212979 -0.0393906570971 0.0434785187244 0.152116179466 -0.0265944246203 0.0339501164854 0.00114055094309 0.00255465391092 0.0949446931481 0.0474957004189 -0.0430706851184 -0.0190784372389 0.0352690890431 -0.0559618845582 0.045659199357 -0.125706031919 0.0511038899422 0.0237971059978 0.0992503091693 -0.0618167631328 -0.0769231915474 0.108638592064 0.0097264284268 0.0405766740441 -0.0262499582022 -0.0847432240844 -0.0257427897304 -0.103702433407 -0.0208264179528 0.167171552777 0.000235536572291 0.0358773469925 -0.0603968910873 -0.0786985680461 0.0494009926915 -0.138469159603 0.0971455648541 0.110129065812 0.0603617466986 -0.00435347249731 0.109048619866 -0.0704991593957 0.0648177489638 -0.0854112431407 0.0316921025515 0.0311870146543 -0.0701011940837 -0.0917119979858 0.00231629237533 -0.0171048045158 -0.12856566906 -0.00876012817025 -0.0219698231667 0.0548374056816 -0.104252777994 0.0439100041986 -0.0317182354629 -0.063944272697 0.0289538018405 0.0326040796936 0.157474562526 0.0324722230434 0.0490746870637 -0.0492614097893 0.0089562125504 -0.0762496814132 0.0197128076106 0.0893239676952 0.0535694994032 0.101650513709 -0.0698404163122 -0.128921732306 -0.00251068733633 0.0581803247333 0.0778341293335 -0.132067292929 -0.0101470444351 -0.0542684011161 -0.0578043200076 -0.0271279644221 0.0948082283139 0.164302438498 -0.0820797160268 0.0796740055084 -0.00247014197521 0.0340818166733 0.121566459537 -0.0293208118528 0.178718820214 0.0386099070311 -0.00939656514674 -0.016852254048 0.0576656758785 -0.0900915414095 0.0538830049336 -0.0246728565544 0.0797180905938 -0.142052382231 -0.0781679973006 -0.0281486362219 -0.0748514831066 -0.174560546875 -0.0232523456216 -0.0240883789957 -0.0347399041057 -0.0316930226982 -0.05116225034 -0.00467351265252 0.0749170184135 0.0200402345508 -0.065285526216 -0.120546102524 -0.00189814192709 0.0070884055458 0.0235938522965 -0.102755382657 0.0217544175684 0.0492595955729 -0.0674715861678 0.0578333176672 -0.0187344420701 0.100342750549 0.0202116519213 0.039430256933 -0.0283000729978 0.0482791773975 -0.0613109432161 0.0528185665607 -0.0154192820191 -0.0447505116463 0.0853091627359 0.0249161459506 -0.176697060466 -0.0421917103231 -0.170276641846 0.110115386546 0.00910444837064 -0.0858456790447 0.0627114698291 0.0263001006097 -0.00795360933989 0.0738929510117 -0.138874799013 -0.0809370726347 -0.0995684191585 -0.00684923259541 -0.059733055532 -0.0500443093479 0.0750397443771 -0.102448135614 0.154854804277 0.0715387016535 -0.0408811457455 0.0208360124379 -0.0320544689894 -0.0729746446013 -0.0391344055533 -0.104954771698 0.0797918587923 0.135374650359 -0.0381550639868 -0.0333153270185 0.0261723250151 -0.0436099022627 -0.100492164493 0.00345901260152 -0.0862988308072 -0.0303817968816 -0.0819313749671 -0.0471545495093 -0.0737338289618 -0.0346276573837 0.0138000557199 0.0324615165591 0.0181728713214 -0.0417782738805 -0.0178188551217 -0.106011942029 -0.125138059258 -0.0265821237117 0.0449987389147 -0.0101997805759 -0.0330393463373 0.00230472162366 0.0257725305855 0.1028451249 -0.0433469600976 -0.0509249679744 0.0962281525135 0.111409790814 -0.0186294037849 -0.110032558441 -0.0215550735593 -0.0520158559084 0.10008084029 0.133939802647 0.0294514298439 -0.0543744564056 -0.116201892495 0.0255518648773 0.121116355062 0.145896822214 -0.081213273108 -0.0902368426323 0.126648172736 0.134065315127 0.0567302666605 0.091087475419 -0.00786195509136 0.0302426945418 -0.029553534463 -0.0258433092386 -0.044554464519 -0.0347023643553 -0.00924769416451 -0.230157002807 -0.0865178778768 -0.0164571739733 0.0250942222774 -0.0386715196073 -0.0602429658175 -0.0198901370168 -0.0893132090569 -0.0118497405201 -0.0183801744133 0.0392604656518 -0.0518522299826 0.0699957311153 -0.101360350847 -0.0329277999699 -0.0961690470576 0.139526858926 0.155191272497 -0.0870355516672 0.0681592226028 0.0232735369354 -0.020638782531 0.0146241690964 0.144784227014 -0.0724734514952 0.125184610486
teamjesus 0.235486373305 -0.0120684960857 0.152089253068 -0.165010720491 -0.123105831444 -0.132886633277 0.182349577546 -0.0509530641139 0.316547423601 -0.171103388071 -0.0608394145966 -0.00709252525121 -0.0691770389676 0.0481021776795 -0.0176228247583 0.241071879864 0.0173560734838 -0.0920170918107 0.0211835112423 -0.293272256851 -0.0308873280883 -0.105789199471 0.200020700693 0.207589119673 0.113603889942 -0.0139600289986 0.0844505652785 0.0325633250177 -0.0875409096479 -0.0646879300475 0.0817917138338 0.206050828099 -0.216444224119 0.046498361975 0.125569447875 -0.182637631893 -0.0350878611207 0.108800649643 -0.0134921399876 -0.0437234416604 -0.198180899024 0.0229049474001 -0.0225846320391 -0.0192625913769 -0.192161053419 -0.195317924023 0.0763254910707 0.101283952594 0.0914891660213 0.031631924212 -0.049158886075 0.0488401465118 -0.0667813941836 -0.0475090630352 -0.00928610842675 0.0391615629196 -0.0772246941924 -0.00614547729492 -0.304731756449 -0.143034979701 -0.018765443936 0.103632077575 0.277125567198 -0.0228472221643 0.115358315408 -0.105271972716 0.0227846782655 0.0249967072159 0.0423453226686 0.0440607368946 0.0892204120755 -0.017155462876 -0.0300167817622 0.0821297615767 -0.197247132659 -0.000869390263688 -0.155578583479 0.147611632943 0.00405011419207 -0.0606047622859 0.0928507596254 -0.120019122958 0.0202393848449 0.0670499354601 -0.202290460467 0.0636004060507 -0.148150503635 -0.0409544818103 0.174604833126 0.106817364693 0.102448761463 0.0686050653458 -0.175482466817 0.00425258651376 -0.0638260170817 0.0724343881011 0.0256974007934 0.180228978395 -0.0324204154313 0.297633081675 -0.0104497401044 0.152370378375 -0.202901080251 0.0675082504749 -0.0497047193348 -0.0785595700145 -0.094722121954 0.0452729314566 -0.0932748839259 -0.12731808424 -0.0234032794833 -0.135181620717 0.0139401145279 -0.169475778937 -0.148981019855 -0.19406606257 -0.0639610886574 0.0158655177802 0.127635776997 0.0987623557448 -0.0259338244796 0.0706719085574 -0.136831313372 0.0171456355602 -0.154875129461 0.144086271524 0.110807135701 0.102481812239 0.156869858503 -0.159095615149 -0.186539322138 -0.106902167201 0.159696251154 0.185961708426 -0.120126903057 -0.0720239579678 -0.0650038048625 0.00490369414911 -0.111397564411 -0.039487272501 0.193490743637 -0.0928384289145 0.227379739285 0.104152046144 0.0606301985681 0.203834414482 -0.0642098784447 0.077430807054 0.163786187768 -0.0105958329514 0.00625003408641 -0.10398299247 -0.100266888738 0.137364804745 -0.0663188695908 0.0994987562299 -0.242851227522 -0.0722526833415 -0.0123090492561 -0.150623708963 -0.311604142189 0.0362824052572 0.14469113946 0.0147019270808 -0.0750357806683 -0.00118639366701 -0.0228519868106 0.000695723574609 -0.035544924438 -0.175677627325 -0.226695731282 -0.0970255807042 -0.0417701043189 0.0570191815495 -0.151428446174 -0.171145617962 0.129377156496 0.00951450690627 0.0686912983656 -0.180963084102 0.105071783066 0.273273527622 -0.0429631434381 -0.00114342442248 0.0974598303437 -0.0452609211206 -0.003462145105 0.0658743157983 -0.0198182351887 0.125994503498 -0.0766652002931 -0.141435787082 -0.143167600036 -0.227007091045 0.195653125644 -0.102782838047 -0.0940968394279 -0.0344782806933 0.248978629708 0.0867511257529 0.159834876657 -0.242980599403 -0.0887339115143 -0.202044203877 -0.103503741324 -0.142148673534 0.0603115111589 0.0657736957073 -0.109459213912 0.126570314169 0.244589790702 -0.056939996779 0.185217857361 -0.199904918671 -0.096142321825 -0.170523166656 -0.124307319522 0.15633879602 0.290424853563 -0.159269556403 -0.0248934067786 0.131328597665 -0.0751124694943 -0.151312932372 0.0701808780432 -0.140474632382 -0.060780081898 0.0505579784513 0.04942882061 0.046396125108 -0.166511654854 0.110125482082 -0.0359100550413 0.099295116961 -0.125462651253 -0.0593716613948 -0.158565238118 -0.187300741673 -0.273262858391 0.0405626408756 -0.0505859032273 -0.0840914547443 0.0757107883692 0.13221731782 0.137848049402 -0.0631089434028 -0.149816185236 0.132538497448 -0.0776175111532 -0.044256825 -0.03235219419 -0.0364482440054 -0.0560868792236 0.206707462668 0.0698451846838 0.0844173207879 0.0266786925495 -0.223292052746 -0.0951447635889 0.0402396395802 0.0092170778662 -0.197381854057 -0.289340436459 0.273899942636 0.258719474077 0.0886438935995 0.088578440249 -0.152904927731 -0.0174166318029 -0.0042257476598 -0.0174525622278 -0.186597570777 0.0319655053318 0.138287559152 -0.371658444405 -0.205280512571 0.0267082825303 0.125118359923 0.0116667291149 0.0783992707729 0.0339583531022 -0.127091675997 -0.0684557035565 0.0201706290245 0.0752209499478 0.0333402976394 0.154909357429 -0.155674487352 0.00444969395176 -0.0631166324019 0.216289937496 0.339677393436 -0.14428883791 0.0499231293797 0.0160866584629 0.0176860000938 -0.0225913450122 0.118224442005 -0.247963249683 0.152456566691
children 0.0289744865149 0.0919155329466 0.0604050718248 -0.0413408242166 -0.15164552629 0.0691915825009 0.0714636743069 -0.10936742276 0.0288364849985 0.0573185943067 -0.064263060689 -0.118293911219 -0.175764620304 -0.0792279466987 0.00243827374652 0.0754443854094 0.0925262793899 0.0245946906507 0.0199273899198 -0.0454822815955 -0.0683847293258 -0.138637021184 0.0834177881479 0.159208506346 0.0844111219049 0.0643286779523 -0.00989151280373 0.12162283808 -0.108011670411 0.0276863276958 -0.0692799314857 0.126706242561 -0.0980034247041 -0.0150396414101 -0.0477357730269 0.0015678901691 -0.0682379156351 0.0503896214068 0.0764916539192 -0.0879069119692 -0.145718738437 0.0727074891329 -0.0613720826805 -0.0227665733546 -0.048025328666 -0.16539105773 -0.0467048697174 0.0574251674116 0.0284184832126 0.0829219669104 -0.0856022313237 0.0415898822248 -0.0609092973173 -0.12780444324 -0.122276797891 -0.030368629843 0.0894954949617 0.0273470375687 -0.144647866488 -0.000644955784082 -0.0724160522223 0.0753603205085 0.0487282015383 -0.0652119964361 0.0592506825924 0.0167480502278 -0.0151286544278 -0.0525745935738 0.0377125404775 -0.0210461933166 -0.0572402738035 0.0408839397132 -0.154412642121 0.00479839602485 -0.0996969789267 0.071895442903 0.0100151142105 -0.012315348722 -0.0216446761042 0.0641278550029 0.0867570340633 0.136508852243 -0.0315789952874 -0.0528673157096 -0.00929093919694 0.0455895289779 -0.0339340493083 -0.0162400826812 0.0121352430433 -0.0464327149093 -0.0568613633513 0.0328683070838 0.0142825795338 0.0616004392505 -0.0648454204202 0.107864797115 0.00636098859832 -0.00292491563596 0.000232328282436 0.0291653610766 -0.0966164246202 0.0300739947706 -0.0173871591687 0.0263879355043 0.03957311064 -0.0815280303359 0.0519517287612 -0.0123380888253 -0.0772992894053 -0.158394545317 -0.157926812768 -0.0358548536897 0.0989075601101 -0.00262568378821 0.0515405461192 -0.10913464427 -0.062752187252 0.0311240274459 -0.056947838515 0.0481470339 0.0247048381716 0.0190653391182 0.0135695235804 -0.0152640528977 -0.0414404161274 -0.0643064528704 0.000377211108571 0.00643920712173 0.00449153082445 -0.0632241889834 -0.00861995387822 0.042135361582 -0.00867615733296 0.0754350721836 -0.118409663439 -0.0708952695131 -0.0270930975676 -0.0839624777436 -0.0290176570415 0.084924377501 0.111734271049 -0.106518752873 0.000828492047731 0.0448983125389 -0.0131755433977 0.0546877384186 -0.121006987989 0.257630556822 0.0495286844671 0.0238428190351 0.0369574353099 -0.0153545914218 -0.0171475950629 0.0216129161417 -0.010616526939 0.0614316873252 0.00779880816117 -0.0215587038547 0.0108480500057 -0.0232553184032 -0.135548353195 -0.0240492783487 -0.128395617008 -0.0507334135473 -0.0358274765313 -0.0102023901418 -0.0850744917989 0.0149033181369 -0.000645499792881 0.0930763706565 -0.13870754838 -0.033543612808 0.0744490325451 0.075202010572 -0.0134968683124 0.164113476872 -0.0570700652897 -0.0647425428033 0.0774763301015 0.0587182752788 0.0269282348454 0.0663031116128 -0.0404525399208 0.033863723278 -0.00281099090353 -0.103486128151 0.0118840970099 -0.0448700450361 -0.0412584841251 0.0973710045218 0.0649424120784 -0.124714754522 0.0579875968397 -0.0296191554517 0.0102855777368 0.0587667413056 -0.0997179448605 0.027062131092 -0.0343910641968 -0.0187567118555 0.134232357144 -0.0484399497509 0.0956044793129 -0.102896660566 -0.0301579684019 -0.00944318715483 -0.0442331545055 0.124562263489 -0.149625584483 0.174867019057 -0.00648851506412 -0.0425141081214 0.0362332314253 0.0935204252601 -0.0534060485661 0.036962531507 -0.204656988382 0.0549009330571 0.137933179736 0.0515605546534 -0.0518475398421 -0.0352959036827 0.0741910040379 -0.0379801355302 -0.0628703534603 -0.0902512446046 -0.104263797402 -0.103360623121 -0.104090824723 -0.108820073307 0.0104856966063 0.0484166108072 0.100075535476 0.123409755528 0.0244043301791 -0.00726678082719 -0.0863781273365 -0.0539816096425 -0.0201229657978 0.0099320653826 -0.0143035650253 -0.0183341596276 0.0350117720664 0.0160953812301 0.0269011184573 -0.00544141652063 -0.0740991830826 0.148312196136 0.0382855311036 -0.1065736413 -0.0834856554866 -0.040944263339 -0.0413534641266 0.142102822661 0.103418081999 0.0522311963141 -0.0556363724172 -0.109318554401 0.0773510634899 0.037514641881 0.119256071746 -0.0700368583202 -0.10373044014 0.0551889538765 -0.00456039374694 0.101860128343 0.120545081794 -0.0298883840442 0.0796269476414 -0.0252322237939 -0.0287856310606 0.00555035518482 0.072383582592 -0.0718463882804 -0.176767423749 -0.0462844260037 -0.112987197936 -0.086755938828 -0.141433775425 -0.0232193768024 -0.0270778238773 -0.0719630941749 0.133677974343 0.0324453487992 -0.0463360957801 -0.0108105214313 0.0450304374099 -0.120858699083 -0.0487680658698 -0.120804838836 0.064297221601 0.0480491481721 -0.0997841879725 0.100514195859 0.0954546406865 0.00693183438852 -0.12335652113 0.159986868501 0.0010891117854 0.161598846316
identity 0.0348150506616 0.0475255548954 0.00824770424515 0.0015264932299 -0.142654910684 0.0471041686833 -0.0127586694434 -0.076449342072 0.101811058819 -0.00683334190398 -0.0424391515553 -0.11016985029 -0.128750756383 -0.0267132986337 -0.0151659492403 0.128497302532 -0.0277449302375 -0.00417753541842 0.00218894565478 -0.0688532292843 -0.0392051823437 -0.0436697565019 0.103479966521 0.199889853597 0.0434684157372 0.0519008599222 -0.029485899955 0.0742139294744 -0.0830778256059 -0.101415060461 -0.0713170990348 0.105067029595 -0.00726295262575 0.000284386071144 0.0351409912109 -0.0130132986233 -0.0408975370228 0.0477243587375 0.0395122468472 -0.0936767607927 -0.144787237048 -0.00675428658724 -0.100082561374 -0.0204642955214 -0.00362206250429 -0.188008964062 0.0355168730021 0.0757868736982 0.0335607044399 -0.00272445427254 -0.0348959192634 0.00491263251752 -0.0411380492151 -0.135724544525 -0.0875782296062 0.00305704120547 0.0672066733241 0.0107939811423 -0.138804718852 -0.0535203963518 -0.0337221957743 0.0745453462005 0.106014609337 -0.0654104650021 0.060947354883 0.0150608969852 -0.0291616450995 0.0044714207761 0.0556643791497 0.00857793167233 0.0112205250189 -0.0142100090161 -0.104249373078 -0.00182304880582 -0.164862036705 0.0342535749078 0.0412834845483 0.0406046696007 -0.0215317104012 -0.0161826610565 0.102482482791 0.0355109609663 0.0082601159811 -0.0203658081591 -0.0364786460996 0.0045859599486 -0.119473427534 -0.0358705222607 0.113285392523 -0.00934762880206 -0.0113720828667 -0.0179475937039 -0.048539377749 0.0930942744017 -0.0595578663051 0.0667274743319 0.0181326139718 0.0681677237153 0.0254477653652 0.0553110688925 -0.060177706182 0.103196196258 -0.0447750203311 0.00378491729498 0.0766951665282 -0.0856672599912 0.00570160383359 -0.0172824766487 -0.0702003240585 -0.123434469104 -0.122272096574 -0.0829182341695 0.0324627123773 -0.0476435869932 0.0532139800489 -0.0227561108768 -0.142316639423 0.0784363299608 0.0349864475429 0.0849367007613 -0.0346970073879 0.0652526393533 -0.0434502772987 0.00519764004275 -0.0499007180333 -0.0982665494084 0.000548427458853 0.0203162021935 0.0760119259357 -0.148576319218 -0.0493858680129 -0.00399577664211 0.00457047438249 0.0443806834519 -0.167861118913 -0.0539555251598 -0.0286236125976 -0.0834037959576 -0.101317338645 0.0958001613617 0.1347258389 -0.07302698493 0.0365366190672 0.0216746721417 0.0306527297944 0.108416199684 -0.08144826442 0.230598539114 0.0111274784431 0.02016755566 0.0179255846888 -0.0242264010012 -0.0738617777824 0.0711975395679 -0.00585240637884 0.0444694645703 -0.0644848570228 -0.086683049798 0.0223048757762 -0.072550944984 -0.186786368489 0.0144325988367 -0.120716229081 -0.127325326204 -0.0386164113879 0.000935413641855 -0.0343182645738 0.0477597825229 -0.0147353662178 0.0200281254947 -0.163083940744 0.0208289157599 0.0693933218718 0.0311337653548 -0.0516654998064 0.0796510875225 0.0224273502827 -0.000549184973352 0.0148974126205 0.00417309161276 0.104243740439 0.0303124450147 0.0724340751767 -0.0190616510808 0.0755447149277 -0.06953163445 -0.0107622714713 -0.0532544888556 -0.0864064991474 0.149136483669 0.0153241055086 -0.161456823349 -0.00299566960894 -0.116724647582 0.0510840564966 -0.00785685982555 -0.0978232324123 0.0598951466382 0.0493811108172 -0.0686077997088 0.0949654504657 -0.0808418244123 -0.0260424911976 -0.0703580677509 -0.00947292335331 -0.0134922955185 -0.0613230317831 0.0921747386456 -0.116173796356 0.122992672026 0.0232712440193 -0.0574962049723 0.00579508021474 0.0667434334755 -0.0651208981872 -0.015824014321 -0.129288032651 0.04346100986 0.138697072864 0.0208118278533 -0.0521539375186 0.0134428115562 0.0294497832656 -0.0479495711625 0.0303253959864 -0.0950715020299 -0.0300976540893 -0.0878692194819 -0.0651820749044 -0.130384981632 -0.0478032417595 0.0419958159328 0.097618624568 -0.020001957193 -0.0406999215484 0.0316038876772 -0.128943011165 -0.0986882895231 -0.0288275033236 0.0847336873412 -0.000920198566746 -0.00394227774814 0.0229508131742 0.0678692907095 0.0469743423164 -0.00630728295073 -0.0107873538509 0.108045578003 0.0716080367565 -0.0354095473886 -0.147182494402 -0.0768030583858 -0.0219166129827 0.136584594846 0.0902543738484 0.032043710351 -0.0612051822245 -0.0956200137734 0.0466733984649 0.0785196125507 0.146632790565 -0.0507451184094 -0.122062921524 0.030972154811 0.0742776468396 0.0880169048905 0.117738813162 -0.0656317844987 0.0822734460235 -0.0255036279559 0.00133427837864 -0.00191971845925 -0.0598302818835 -0.00249955593608 -0.204813882709 -0.0792792141438 -0.0933591797948 0.0123400986195 -0.0159726180136 -0.0986666232347 -0.00713639426976 -0.0504791364074 0.0410371124744 -0.0209948737174 -0.0162773653865 -0.022241724655 0.0721922814846 -0.0959394127131 -0.0220456104726 -0.117515988648 0.175919577479 0.0678471252322 -0.0935730487108 0.0582961440086 0.0671977847815 -0.00045440471149 -0.0630318373442 0.143871173263 -0.0974923297763 0.0852531865239
